digraph Tree {
node [shape=box, style="filled, rounded", color="black", fontname="helvetica"] ;
edge [fontname="helvetica"] ;
0 [label=<marital-status_Married-civ-spouse &le; 0.5<br/>gini = 0.5<br/>samples = 39552<br/>value = [19813, 19739]<br/>class = 0>, fillcolor="#fffffe"] ;
1 [label=<capital-gain &le; 4668.5<br/>gini = 0.295<br/>samples = 16025<br/>value = [13145, 2880]<br/>class = 0>, fillcolor="#eb9d64"] ;
0 -> 1 [labeldistance=2.5, labelangle=45, headlabel="True"] ;
2 [label=<education-num &le; 12.5<br/>gini = 0.234<br/>samples = 15112<br/>value = [13069, 2043]<br/>class = 0>, fillcolor="#e99558"] ;
1 -> 2 ;
3 [label=<hours-per-week &le; 41.5<br/>gini = 0.132<br/>samples = 11568<br/>value = [10748, 820]<br/>class = 0>, fillcolor="#e78b48"] ;
2 -> 3 ;
4 [label=<capital-loss &le; 2218.5<br/>gini = 0.079<br/>samples = 9312<br/>value = [8930, 382]<br/>class = 0>, fillcolor="#e68641"] ;
3 -> 4 ;
5 [label=<age &le; 33.5<br/>gini = 0.074<br/>samples = 9269<br/>value = [8913, 356]<br/>class = 0>, fillcolor="#e68641"] ;
4 -> 5 ;
6 [label=<relationship_Husband &le; 0.5<br/>gini = 0.02<br/>samples = 5423<br/>value = [5368, 55]<br/>class = 0>, fillcolor="#e5823b"] ;
5 -> 6 ;
7 [label=<marital-status_Widowed &le; 0.5<br/>gini = 0.019<br/>samples = 5421<br/>value = [5368, 53]<br/>class = 0>, fillcolor="#e5823b"] ;
6 -> 7 ;
8 [label=<occupation_Protective-serv &le; 0.5<br/>gini = 0.017<br/>samples = 5400<br/>value = [5353, 47]<br/>class = 0>, fillcolor="#e5823b"] ;
7 -> 8 ;
9 [label=<education-num &le; 10.5<br/>gini = 0.014<br/>samples = 5293<br/>value = [5257, 36]<br/>class = 0>, fillcolor="#e5823a"] ;
8 -> 9 ;
10 [label=<relationship_Wife &le; 0.5<br/>gini = 0.009<br/>samples = 4913<br/>value = [4891, 22]<br/>class = 0>, fillcolor="#e5823a"] ;
9 -> 10 ;
11 [label=<age &le; 32.5<br/>gini = 0.009<br/>samples = 4911<br/>value = [4890, 21]<br/>class = 0>, fillcolor="#e5823a"] ;
10 -> 11 ;
12 [label=<occupation_Craft-repair &le; 0.5<br/>gini = 0.005<br/>samples = 4723<br/>value = [4710, 13]<br/>class = 0>, fillcolor="#e5813a"] ;
11 -> 12 ;
13 [label=<workclass_Self-emp-not-inc &le; 0.5<br/>gini = 0.003<br/>samples = 4237<br/>value = [4231, 6]<br/>class = 0>, fillcolor="#e58139"] ;
12 -> 13 ;
14 [label=<race_Amer-Indian-Eskimo &le; 0.5<br/>gini = 0.002<br/>samples = 4167<br/>value = [4163, 4]<br/>class = 0>, fillcolor="#e58139"] ;
13 -> 14 ;
15 [label=<education-num &le; 3.5<br/>gini = 0.001<br/>samples = 4124<br/>value = [4121, 3]<br/>class = 0>, fillcolor="#e58139"] ;
14 -> 15 ;
16 [label=<workclass_Local-gov &le; 0.5<br/>gini = 0.033<br/>samples = 60<br/>value = [59, 1]<br/>class = 0>, fillcolor="#e5833c"] ;
15 -> 16 ;
17 [label=<gini = 0.0<br/>samples = 59<br/>value = [59, 0]<br/>class = 0>, fillcolor="#e58139"] ;
16 -> 17 ;
18 [label=<gini = 0.0<br/>samples = 1<br/>value = [0, 1]<br/>class = 1>, fillcolor="#399de5"] ;
16 -> 18 ;
19 [label=<occupation_Tech-support &le; 0.5<br/>gini = 0.001<br/>samples = 4064<br/>value = [4062, 2]<br/>class = 0>, fillcolor="#e58139"] ;
15 -> 19 ;
20 [label=<occupation_Other-service &le; 0.5<br/>gini = 0.001<br/>samples = 3950<br/>value = [3949, 1]<br/>class = 0>, fillcolor="#e58139"] ;
19 -> 20 ;
21 [label=<gini = 0.0<br/>samples = 2950<br/>value = [2950, 0]<br/>class = 0>, fillcolor="#e58139"] ;
20 -> 21 ;
22 [label=<education-num &le; 9.5<br/>gini = 0.002<br/>samples = 1000<br/>value = [999, 1]<br/>class = 0>, fillcolor="#e58139"] ;
20 -> 22 ;
23 [label=<gini = 0.0<br/>samples = 646<br/>value = [646, 0]<br/>class = 0>, fillcolor="#e58139"] ;
22 -> 23 ;
24 [label=<hours-per-week &le; 31.0<br/>gini = 0.006<br/>samples = 354<br/>value = [353, 1]<br/>class = 0>, fillcolor="#e5813a"] ;
22 -> 24 ;
25 [label=<gini = 0.0<br/>samples = 215<br/>value = [215, 0]<br/>class = 0>, fillcolor="#e58139"] ;
24 -> 25 ;
26 [label=<gini = 0.014<br/>samples = 139<br/>value = [138, 1]<br/>class = 0>, fillcolor="#e5823a"] ;
24 -> 26 ;
27 [label=<marital-status_Separated &le; 0.5<br/>gini = 0.017<br/>samples = 114<br/>value = [113, 1]<br/>class = 0>, fillcolor="#e5823b"] ;
19 -> 27 ;
28 [label=<gini = 0.0<br/>samples = 108<br/>value = [108, 0]<br/>class = 0>, fillcolor="#e58139"] ;
27 -> 28 ;
29 [label=<sex_Male &le; 0.5<br/>gini = 0.278<br/>samples = 6<br/>value = [5, 1]<br/>class = 0>, fillcolor="#ea9a61"] ;
27 -> 29 ;
30 [label=<gini = 0.0<br/>samples = 4<br/>value = [4, 0]<br/>class = 0>, fillcolor="#e58139"] ;
29 -> 30 ;
31 [label=<relationship_Unmarried &le; 0.5<br/>gini = 0.5<br/>samples = 2<br/>value = [1, 1]<br/>class = 0>, fillcolor="#ffffff"] ;
29 -> 31 ;
32 [label=<gini = 0.0<br/>samples = 1<br/>value = [1, 0]<br/>class = 0>, fillcolor="#e58139"] ;
31 -> 32 ;
33 [label=<gini = 0.0<br/>samples = 1<br/>value = [0, 1]<br/>class = 1>, fillcolor="#399de5"] ;
31 -> 33 ;
34 [label=<workclass_State-gov &le; 0.5<br/>gini = 0.045<br/>samples = 43<br/>value = [42, 1]<br/>class = 0>, fillcolor="#e6843e"] ;
14 -> 34 ;
35 [label=<gini = 0.0<br/>samples = 42<br/>value = [42, 0]<br/>class = 0>, fillcolor="#e58139"] ;
34 -> 35 ;
36 [label=<gini = 0.0<br/>samples = 1<br/>value = [0, 1]<br/>class = 1>, fillcolor="#399de5"] ;
34 -> 36 ;
37 [label=<race_Asian-Pac-Islander &le; 0.5<br/>gini = 0.056<br/>samples = 70<br/>value = [68, 2]<br/>class = 0>, fillcolor="#e6853f"] ;
13 -> 37 ;
38 [label=<gini = 0.0<br/>samples = 65<br/>value = [65, 0]<br/>class = 0>, fillcolor="#e58139"] ;
37 -> 38 ;
39 [label=<education-num &le; 9.5<br/>gini = 0.48<br/>samples = 5<br/>value = [3, 2]<br/>class = 0>, fillcolor="#f6d5bd"] ;
37 -> 39 ;
40 [label=<gini = 0.0<br/>samples = 2<br/>value = [2, 0]<br/>class = 0>, fillcolor="#e58139"] ;
39 -> 40 ;
41 [label=<hours-per-week &le; 35.0<br/>gini = 0.444<br/>samples = 3<br/>value = [1, 2]<br/>class = 1>, fillcolor="#9ccef2"] ;
39 -> 41 ;
42 [label=<gini = 0.0<br/>samples = 2<br/>value = [0, 2]<br/>class = 1>, fillcolor="#399de5"] ;
41 -> 42 ;
43 [label=<gini = 0.0<br/>samples = 1<br/>value = [1, 0]<br/>class = 0>, fillcolor="#e58139"] ;
41 -> 43 ;
44 [label=<age &le; 28.5<br/>gini = 0.028<br/>samples = 486<br/>value = [479, 7]<br/>class = 0>, fillcolor="#e5833c"] ;
12 -> 44 ;
45 [label=<gini = 0.0<br/>samples = 371<br/>value = [371, 0]<br/>class = 0>, fillcolor="#e58139"] ;
44 -> 45 ;
46 [label=<education-num &le; 9.5<br/>gini = 0.114<br/>samples = 115<br/>value = [108, 7]<br/>class = 0>, fillcolor="#e78946"] ;
44 -> 46 ;
47 [label=<gini = 0.0<br/>samples = 81<br/>value = [81, 0]<br/>class = 0>, fillcolor="#e58139"] ;
46 -> 47 ;
48 [label=<age &le; 30.5<br/>gini = 0.327<br/>samples = 34<br/>value = [27, 7]<br/>class = 0>, fillcolor="#eca26c"] ;
46 -> 48 ;
49 [label=<relationship_Not-in-family &le; 0.5<br/>gini = 0.432<br/>samples = 19<br/>value = [13, 6]<br/>class = 0>, fillcolor="#f1bb94"] ;
48 -> 49 ;
50 [label=<hours-per-week &le; 37.5<br/>gini = 0.18<br/>samples = 10<br/>value = [9, 1]<br/>class = 0>, fillcolor="#e88f4f"] ;
49 -> 50 ;
51 [label=<workclass_Self-emp-not-inc &le; 0.5<br/>gini = 0.5<br/>samples = 2<br/>value = [1, 1]<br/>class = 0>, fillcolor="#ffffff"] ;
50 -> 51 ;
52 [label=<gini = 0.0<br/>samples = 1<br/>value = [0, 1]<br/>class = 1>, fillcolor="#399de5"] ;
51 -> 52 ;
53 [label=<gini = 0.0<br/>samples = 1<br/>value = [1, 0]<br/>class = 0>, fillcolor="#e58139"] ;
51 -> 53 ;
54 [label=<gini = 0.0<br/>samples = 8<br/>value = [8, 0]<br/>class = 0>, fillcolor="#e58139"] ;
50 -> 54 ;
55 [label=<race_White &le; 0.5<br/>gini = 0.494<br/>samples = 9<br/>value = [4, 5]<br/>class = 1>, fillcolor="#d7ebfa"] ;
49 -> 55 ;
56 [label=<gini = 0.0<br/>samples = 1<br/>value = [1, 0]<br/>class = 0>, fillcolor="#e58139"] ;
55 -> 56 ;
57 [label=<workclass_Federal-gov &le; 0.5<br/>gini = 0.469<br/>samples = 8<br/>value = [3, 5]<br/>class = 1>, fillcolor="#b0d8f5"] ;
55 -> 57 ;
58 [label=<sex_Female &le; 0.5<br/>gini = 0.408<br/>samples = 7<br/>value = [2, 5]<br/>class = 1>, fillcolor="#88c4ef"] ;
57 -> 58 ;
59 [label=<gini = 0.278<br/>samples = 6<br/>value = [1, 5]<br/>class = 1>, fillcolor="#61b1ea"] ;
58 -> 59 ;
60 [label=<gini = 0.0<br/>samples = 1<br/>value = [1, 0]<br/>class = 0>, fillcolor="#e58139"] ;
58 -> 60 ;
61 [label=<gini = 0.0<br/>samples = 1<br/>value = [1, 0]<br/>class = 0>, fillcolor="#e58139"] ;
57 -> 61 ;
62 [label=<relationship_Own-child &le; 0.5<br/>gini = 0.124<br/>samples = 15<br/>value = [14, 1]<br/>class = 0>, fillcolor="#e78a47"] ;
48 -> 62 ;
63 [label=<gini = 0.0<br/>samples = 12<br/>value = [12, 0]<br/>class = 0>, fillcolor="#e58139"] ;
62 -> 63 ;
64 [label=<age &le; 31.5<br/>gini = 0.444<br/>samples = 3<br/>value = [2, 1]<br/>class = 0>, fillcolor="#f2c09c"] ;
62 -> 64 ;
65 [label=<gini = 0.0<br/>samples = 2<br/>value = [2, 0]<br/>class = 0>, fillcolor="#e58139"] ;
64 -> 65 ;
66 [label=<gini = 0.0<br/>samples = 1<br/>value = [0, 1]<br/>class = 1>, fillcolor="#399de5"] ;
64 -> 66 ;
67 [label=<occupation_Exec-managerial &le; 0.5<br/>gini = 0.081<br/>samples = 188<br/>value = [180, 8]<br/>class = 0>, fillcolor="#e68742"] ;
11 -> 67 ;
68 [label=<occupation_Craft-repair &le; 0.5<br/>gini = 0.024<br/>samples = 166<br/>value = [164, 2]<br/>class = 0>, fillcolor="#e5833b"] ;
67 -> 68 ;
69 [label=<gini = 0.0<br/>samples = 145<br/>value = [145, 0]<br/>class = 0>, fillcolor="#e58139"] ;
68 -> 69 ;
70 [label=<relationship_Not-in-family &le; 0.5<br/>gini = 0.172<br/>samples = 21<br/>value = [19, 2]<br/>class = 0>, fillcolor="#e88e4e"] ;
68 -> 70 ;
71 [label=<gini = 0.0<br/>samples = 9<br/>value = [9, 0]<br/>class = 0>, fillcolor="#e58139"] ;
70 -> 71 ;
72 [label=<hours-per-week &le; 37.5<br/>gini = 0.278<br/>samples = 12<br/>value = [10, 2]<br/>class = 0>, fillcolor="#ea9a61"] ;
70 -> 72 ;
73 [label=<gini = 0.0<br/>samples = 4<br/>value = [4, 0]<br/>class = 0>, fillcolor="#e58139"] ;
72 -> 73 ;
74 [label=<education-num &le; 9.5<br/>gini = 0.375<br/>samples = 8<br/>value = [6, 2]<br/>class = 0>, fillcolor="#eeab7b"] ;
72 -> 74 ;
75 [label=<capital-loss &le; 546.0<br/>gini = 0.444<br/>samples = 6<br/>value = [4, 2]<br/>class = 0>, fillcolor="#f2c09c"] ;
74 -> 75 ;
76 [label=<workclass_Private &le; 0.5<br/>gini = 0.48<br/>samples = 5<br/>value = [3, 2]<br/>class = 0>, fillcolor="#f6d5bd"] ;
75 -> 76 ;
77 [label=<gini = 0.0<br/>samples = 1<br/>value = [1, 0]<br/>class = 0>, fillcolor="#e58139"] ;
76 -> 77 ;
78 [label=<hours-per-week &le; 40.5<br/>gini = 0.5<br/>samples = 4<br/>value = [2, 2]<br/>class = 0>, fillcolor="#ffffff"] ;
76 -> 78 ;
79 [label=<gini = 0.444<br/>samples = 3<br/>value = [1, 2]<br/>class = 1>, fillcolor="#9ccef2"] ;
78 -> 79 ;
80 [label=<gini = 0.0<br/>samples = 1<br/>value = [1, 0]<br/>class = 0>, fillcolor="#e58139"] ;
78 -> 80 ;
81 [label=<gini = 0.0<br/>samples = 1<br/>value = [1, 0]<br/>class = 0>, fillcolor="#e58139"] ;
75 -> 81 ;
82 [label=<gini = 0.0<br/>samples = 2<br/>value = [2, 0]<br/>class = 0>, fillcolor="#e58139"] ;
74 -> 82 ;
83 [label=<education-num &le; 7.5<br/>gini = 0.397<br/>samples = 22<br/>value = [16, 6]<br/>class = 0>, fillcolor="#efb083"] ;
67 -> 83 ;
84 [label=<gini = 0.0<br/>samples = 6<br/>value = [0, 6]<br/>class = 1>, fillcolor="#399de5"] ;
83 -> 84 ;
85 [label=<gini = 0.0<br/>samples = 16<br/>value = [16, 0]<br/>class = 0>, fillcolor="#e58139"] ;
83 -> 85 ;
86 [label=<education-num &le; 9.5<br/>gini = 0.5<br/>samples = 2<br/>value = [1, 1]<br/>class = 0>, fillcolor="#ffffff"] ;
10 -> 86 ;
87 [label=<gini = 0.0<br/>samples = 1<br/>value = [1, 0]<br/>class = 0>, fillcolor="#e58139"] ;
86 -> 87 ;
88 [label=<gini = 0.0<br/>samples = 1<br/>value = [0, 1]<br/>class = 1>, fillcolor="#399de5"] ;
86 -> 88 ;
89 [label=<relationship_Not-in-family &le; 0.5<br/>gini = 0.071<br/>samples = 380<br/>value = [366, 14]<br/>class = 0>, fillcolor="#e68641"] ;
9 -> 89 ;
90 [label=<occupation_Craft-repair &le; 0.5<br/>gini = 0.028<br/>samples = 214<br/>value = [211, 3]<br/>class = 0>, fillcolor="#e5833c"] ;
89 -> 90 ;
91 [label=<gini = 0.0<br/>samples = 188<br/>value = [188, 0]<br/>class = 0>, fillcolor="#e58139"] ;
90 -> 91 ;
92 [label=<age &le; 29.5<br/>gini = 0.204<br/>samples = 26<br/>value = [23, 3]<br/>class = 0>, fillcolor="#e89153"] ;
90 -> 92 ;
93 [label=<gini = 0.0<br/>samples = 21<br/>value = [21, 0]<br/>class = 0>, fillcolor="#e58139"] ;
92 -> 93 ;
94 [label=<age &le; 30.5<br/>gini = 0.48<br/>samples = 5<br/>value = [2, 3]<br/>class = 1>, fillcolor="#bddef6"] ;
92 -> 94 ;
95 [label=<gini = 0.0<br/>samples = 2<br/>value = [0, 2]<br/>class = 1>, fillcolor="#399de5"] ;
94 -> 95 ;
96 [label=<sex_Male &le; 0.5<br/>gini = 0.444<br/>samples = 3<br/>value = [2, 1]<br/>class = 0>, fillcolor="#f2c09c"] ;
94 -> 96 ;
97 [label=<gini = 0.0<br/>samples = 1<br/>value = [0, 1]<br/>class = 1>, fillcolor="#399de5"] ;
96 -> 97 ;
98 [label=<gini = 0.0<br/>samples = 2<br/>value = [2, 0]<br/>class = 0>, fillcolor="#e58139"] ;
96 -> 98 ;
99 [label=<occupation_Exec-managerial &le; 0.5<br/>gini = 0.124<br/>samples = 166<br/>value = [155, 11]<br/>class = 0>, fillcolor="#e78a47"] ;
89 -> 99 ;
100 [label=<occupation_Sales &le; 0.5<br/>gini = 0.09<br/>samples = 149<br/>value = [142, 7]<br/>class = 0>, fillcolor="#e68743"] ;
99 -> 100 ;
101 [label=<hours-per-week &le; 31.0<br/>gini = 0.06<br/>samples = 129<br/>value = [125, 4]<br/>class = 0>, fillcolor="#e6853f"] ;
100 -> 101 ;
102 [label=<occupation_Adm-clerical &le; 0.5<br/>gini = 0.175<br/>samples = 31<br/>value = [28, 3]<br/>class = 0>, fillcolor="#e88e4e"] ;
101 -> 102 ;
103 [label=<gini = 0.0<br/>samples = 22<br/>value = [22, 0]<br/>class = 0>, fillcolor="#e58139"] ;
102 -> 103 ;
104 [label=<education-num &le; 11.5<br/>gini = 0.444<br/>samples = 9<br/>value = [6, 3]<br/>class = 0>, fillcolor="#f2c09c"] ;
102 -> 104 ;
105 [label=<gini = 0.0<br/>samples = 3<br/>value = [0, 3]<br/>class = 1>, fillcolor="#399de5"] ;
104 -> 105 ;
106 [label=<gini = 0.0<br/>samples = 6<br/>value = [6, 0]<br/>class = 0>, fillcolor="#e58139"] ;
104 -> 106 ;
107 [label=<workclass_State-gov &le; 0.5<br/>gini = 0.02<br/>samples = 98<br/>value = [97, 1]<br/>class = 0>, fillcolor="#e5823b"] ;
101 -> 107 ;
108 [label=<gini = 0.0<br/>samples = 93<br/>value = [93, 0]<br/>class = 0>, fillcolor="#e58139"] ;
107 -> 108 ;
109 [label=<occupation_Prof-specialty &le; 0.5<br/>gini = 0.32<br/>samples = 5<br/>value = [4, 1]<br/>class = 0>, fillcolor="#eca06a"] ;
107 -> 109 ;
110 [label=<gini = 0.0<br/>samples = 4<br/>value = [4, 0]<br/>class = 0>, fillcolor="#e58139"] ;
109 -> 110 ;
111 [label=<gini = 0.0<br/>samples = 1<br/>value = [0, 1]<br/>class = 1>, fillcolor="#399de5"] ;
109 -> 111 ;
112 [label=<marital-status_Divorced &le; 0.5<br/>gini = 0.255<br/>samples = 20<br/>value = [17, 3]<br/>class = 0>, fillcolor="#ea975c"] ;
100 -> 112 ;
113 [label=<gini = 0.0<br/>samples = 13<br/>value = [13, 0]<br/>class = 0>, fillcolor="#e58139"] ;
112 -> 113 ;
114 [label=<age &le; 30.5<br/>gini = 0.49<br/>samples = 7<br/>value = [4, 3]<br/>class = 0>, fillcolor="#f8e0ce"] ;
112 -> 114 ;
115 [label=<gini = 0.0<br/>samples = 3<br/>value = [0, 3]<br/>class = 1>, fillcolor="#399de5"] ;
114 -> 115 ;
116 [label=<gini = 0.0<br/>samples = 4<br/>value = [4, 0]<br/>class = 0>, fillcolor="#e58139"] ;
114 -> 116 ;
117 [label=<age &le; 28.0<br/>gini = 0.36<br/>samples = 17<br/>value = [13, 4]<br/>class = 0>, fillcolor="#eda876"] ;
99 -> 117 ;
118 [label=<age &le; 26.5<br/>gini = 0.5<br/>samples = 8<br/>value = [4, 4]<br/>class = 0>, fillcolor="#ffffff"] ;
117 -> 118 ;
119 [label=<gini = 0.0<br/>samples = 3<br/>value = [3, 0]<br/>class = 0>, fillcolor="#e58139"] ;
118 -> 119 ;
120 [label=<sex_Male &le; 0.5<br/>gini = 0.32<br/>samples = 5<br/>value = [1, 4]<br/>class = 1>, fillcolor="#6ab6ec"] ;
118 -> 120 ;
121 [label=<gini = 0.0<br/>samples = 4<br/>value = [0, 4]<br/>class = 1>, fillcolor="#399de5"] ;
120 -> 121 ;
122 [label=<gini = 0.0<br/>samples = 1<br/>value = [1, 0]<br/>class = 0>, fillcolor="#e58139"] ;
120 -> 122 ;
123 [label=<gini = 0.0<br/>samples = 9<br/>value = [9, 0]<br/>class = 0>, fillcolor="#e58139"] ;
117 -> 123 ;
124 [label=<education-num &le; 9.5<br/>gini = 0.184<br/>samples = 107<br/>value = [96, 11]<br/>class = 0>, fillcolor="#e88f50"] ;
8 -> 124 ;
125 [label=<gini = 0.0<br/>samples = 52<br/>value = [52, 0]<br/>class = 0>, fillcolor="#e58139"] ;
124 -> 125 ;
126 [label=<workclass_Local-gov &le; 0.5<br/>gini = 0.32<br/>samples = 55<br/>value = [44, 11]<br/>class = 0>, fillcolor="#eca06a"] ;
124 -> 126 ;
127 [label=<marital-status_Divorced &le; 0.5<br/>gini = 0.111<br/>samples = 34<br/>value = [32, 2]<br/>class = 0>, fillcolor="#e78945"] ;
126 -> 127 ;
128 [label=<gini = 0.0<br/>samples = 31<br/>value = [31, 0]<br/>class = 0>, fillcolor="#e58139"] ;
127 -> 128 ;
129 [label=<education-num &le; 11.0<br/>gini = 0.444<br/>samples = 3<br/>value = [1, 2]<br/>class = 1>, fillcolor="#9ccef2"] ;
127 -> 129 ;
130 [label=<gini = 0.0<br/>samples = 2<br/>value = [0, 2]<br/>class = 1>, fillcolor="#399de5"] ;
129 -> 130 ;
131 [label=<gini = 0.0<br/>samples = 1<br/>value = [1, 0]<br/>class = 0>, fillcolor="#e58139"] ;
129 -> 131 ;
132 [label=<relationship_Own-child &le; 0.5<br/>gini = 0.49<br/>samples = 21<br/>value = [12, 9]<br/>class = 0>, fillcolor="#f8e0ce"] ;
126 -> 132 ;
133 [label=<gini = 0.0<br/>samples = 5<br/>value = [5, 0]<br/>class = 0>, fillcolor="#e58139"] ;
132 -> 133 ;
134 [label=<age &le; 22.5<br/>gini = 0.492<br/>samples = 16<br/>value = [7, 9]<br/>class = 1>, fillcolor="#d3e9f9"] ;
132 -> 134 ;
135 [label=<gini = 0.0<br/>samples = 3<br/>value = [3, 0]<br/>class = 0>, fillcolor="#e58139"] ;
134 -> 135 ;
136 [label=<age &le; 23.5<br/>gini = 0.426<br/>samples = 13<br/>value = [4, 9]<br/>class = 1>, fillcolor="#91c9f1"] ;
134 -> 136 ;
137 [label=<gini = 0.0<br/>samples = 5<br/>value = [0, 5]<br/>class = 1>, fillcolor="#399de5"] ;
136 -> 137 ;
138 [label=<age &le; 26.0<br/>gini = 0.5<br/>samples = 8<br/>value = [4, 4]<br/>class = 0>, fillcolor="#ffffff"] ;
136 -> 138 ;
139 [label=<gini = 0.0<br/>samples = 3<br/>value = [3, 0]<br/>class = 0>, fillcolor="#e58139"] ;
138 -> 139 ;
140 [label=<age &le; 27.5<br/>gini = 0.32<br/>samples = 5<br/>value = [1, 4]<br/>class = 1>, fillcolor="#6ab6ec"] ;
138 -> 140 ;
141 [label=<gini = 0.0<br/>samples = 4<br/>value = [0, 4]<br/>class = 1>, fillcolor="#399de5"] ;
140 -> 141 ;
142 [label=<gini = 0.0<br/>samples = 1<br/>value = [1, 0]<br/>class = 0>, fillcolor="#e58139"] ;
140 -> 142 ;
143 [label=<workclass_Self-emp-not-inc &le; 0.5<br/>gini = 0.408<br/>samples = 21<br/>value = [15, 6]<br/>class = 0>, fillcolor="#efb388"] ;
7 -> 143 ;
144 [label=<gini = 0.0<br/>samples = 15<br/>value = [15, 0]<br/>class = 0>, fillcolor="#e58139"] ;
143 -> 144 ;
145 [label=<gini = 0.0<br/>samples = 6<br/>value = [0, 6]<br/>class = 1>, fillcolor="#399de5"] ;
143 -> 145 ;
146 [label=<gini = 0.0<br/>samples = 2<br/>value = [0, 2]<br/>class = 1>, fillcolor="#399de5"] ;
6 -> 146 ;
147 [label=<relationship_Wife &le; 0.5<br/>gini = 0.144<br/>samples = 3846<br/>value = [3545, 301]<br/>class = 0>, fillcolor="#e78c4a"] ;
5 -> 147 ;
148 [label=<occupation_Prof-specialty &le; 0.5<br/>gini = 0.14<br/>samples = 3833<br/>value = [3542, 291]<br/>class = 0>, fillcolor="#e78b49"] ;
147 -> 148 ;
149 [label=<occupation_Exec-managerial &le; 0.5<br/>gini = 0.122<br/>samples = 3579<br/>value = [3345, 234]<br/>class = 0>, fillcolor="#e78a47"] ;
148 -> 149 ;
150 [label=<occupation_Craft-repair &le; 0.5<br/>gini = 0.101<br/>samples = 3203<br/>value = [3032, 171]<br/>class = 0>, fillcolor="#e68844"] ;
149 -> 150 ;
151 [label=<occupation_Protective-serv &le; 0.5<br/>gini = 0.075<br/>samples = 2759<br/>value = [2652, 107]<br/>class = 0>, fillcolor="#e68641"] ;
150 -> 151 ;
152 [label=<workclass_Self-emp-inc &le; 0.5<br/>gini = 0.066<br/>samples = 2693<br/>value = [2601, 92]<br/>class = 0>, fillcolor="#e68540"] ;
151 -> 152 ;
153 [label=<relationship_Not-in-family &le; 0.5<br/>gini = 0.062<br/>samples = 2669<br/>value = [2583, 86]<br/>class = 0>, fillcolor="#e68540"] ;
152 -> 153 ;
154 [label=<occupation_Transport-moving &le; 0.5<br/>gini = 0.028<br/>samples = 1333<br/>value = [1314, 19]<br/>class = 0>, fillcolor="#e5833c"] ;
153 -> 154 ;
155 [label=<age &le; 57.5<br/>gini = 0.023<br/>samples = 1268<br/>value = [1253, 15]<br/>class = 0>, fillcolor="#e5833b"] ;
154 -> 155 ;
156 [label=<age &le; 44.5<br/>gini = 0.015<br/>samples = 1089<br/>value = [1081, 8]<br/>class = 0>, fillcolor="#e5823a"] ;
155 -> 156 ;
157 [label=<occupation_Machine-op-inspct &le; 0.5<br/>gini = 0.024<br/>samples = 664<br/>value = [656, 8]<br/>class = 0>, fillcolor="#e5833b"] ;
156 -> 157 ;
158 [label=<occupation_Adm-clerical &le; 0.5<br/>gini = 0.017<br/>samples = 581<br/>value = [576, 5]<br/>class = 0>, fillcolor="#e5823b"] ;
157 -> 158 ;
159 [label=<gini = 0.0<br/>samples = 337<br/>value = [337, 0]<br/>class = 0>, fillcolor="#e58139"] ;
158 -> 159 ;
160 [label=<age &le; 43.5<br/>gini = 0.04<br/>samples = 244<br/>value = [239, 5]<br/>class = 0>, fillcolor="#e6843d"] ;
158 -> 160 ;
161 [label=<age &le; 38.5<br/>gini = 0.027<br/>samples = 221<br/>value = [218, 3]<br/>class = 0>, fillcolor="#e5833c"] ;
160 -> 161 ;
162 [label=<gini = 0.0<br/>samples = 122<br/>value = [122, 0]<br/>class = 0>, fillcolor="#e58139"] ;
161 -> 162 ;
163 [label=<gini = 0.059<br/>samples = 99<br/>value = [96, 3]<br/>class = 0>, fillcolor="#e6853f"] ;
161 -> 163 ;
164 [label=<education-num &le; 9.5<br/>gini = 0.159<br/>samples = 23<br/>value = [21, 2]<br/>class = 0>, fillcolor="#e78d4c"] ;
160 -> 164 ;
165 [label=<gini = 0.278<br/>samples = 12<br/>value = [10, 2]<br/>class = 0>, fillcolor="#ea9a61"] ;
164 -> 165 ;
166 [label=<gini = 0.0<br/>samples = 11<br/>value = [11, 0]<br/>class = 0>, fillcolor="#e58139"] ;
164 -> 166 ;
167 [label=<marital-status_Divorced &le; 0.5<br/>gini = 0.07<br/>samples = 83<br/>value = [80, 3]<br/>class = 0>, fillcolor="#e68640"] ;
157 -> 167 ;
168 [label=<gini = 0.0<br/>samples = 51<br/>value = [51, 0]<br/>class = 0>, fillcolor="#e58139"] ;
167 -> 168 ;
169 [label=<age &le; 37.5<br/>gini = 0.17<br/>samples = 32<br/>value = [29, 3]<br/>class = 0>, fillcolor="#e88e4d"] ;
167 -> 169 ;
170 [label=<age &le; 36.5<br/>gini = 0.375<br/>samples = 12<br/>value = [9, 3]<br/>class = 0>, fillcolor="#eeab7b"] ;
169 -> 170 ;
171 [label=<gini = 0.0<br/>samples = 7<br/>value = [7, 0]<br/>class = 0>, fillcolor="#e58139"] ;
170 -> 171 ;
172 [label=<gini = 0.48<br/>samples = 5<br/>value = [2, 3]<br/>class = 1>, fillcolor="#bddef6"] ;
170 -> 172 ;
173 [label=<gini = 0.0<br/>samples = 20<br/>value = [20, 0]<br/>class = 0>, fillcolor="#e58139"] ;
169 -> 173 ;
174 [label=<gini = 0.0<br/>samples = 425<br/>value = [425, 0]<br/>class = 0>, fillcolor="#e58139"] ;
156 -> 174 ;
175 [label=<workclass_State-gov &le; 0.5<br/>gini = 0.075<br/>samples = 179<br/>value = [172, 7]<br/>class = 0>, fillcolor="#e68641"] ;
155 -> 175 ;
176 [label=<workclass_Local-gov &le; 0.5<br/>gini = 0.046<br/>samples = 170<br/>value = [166, 4]<br/>class = 0>, fillcolor="#e6843e"] ;
175 -> 176 ;
177 [label=<age &le; 58.5<br/>gini = 0.025<br/>samples = 161<br/>value = [159, 2]<br/>class = 0>, fillcolor="#e5833b"] ;
176 -> 177 ;
178 [label=<occupation_Sales &le; 0.5<br/>gini = 0.188<br/>samples = 19<br/>value = [17, 2]<br/>class = 0>, fillcolor="#e89050"] ;
177 -> 178 ;
179 [label=<gini = 0.0<br/>samples = 15<br/>value = [15, 0]<br/>class = 0>, fillcolor="#e58139"] ;
178 -> 179 ;
180 [label=<race_Amer-Indian-Eskimo &le; 0.5<br/>gini = 0.5<br/>samples = 4<br/>value = [2, 2]<br/>class = 0>, fillcolor="#ffffff"] ;
178 -> 180 ;
181 [label=<gini = 0.444<br/>samples = 3<br/>value = [1, 2]<br/>class = 1>, fillcolor="#9ccef2"] ;
180 -> 181 ;
182 [label=<gini = 0.0<br/>samples = 1<br/>value = [1, 0]<br/>class = 0>, fillcolor="#e58139"] ;
180 -> 182 ;
183 [label=<gini = 0.0<br/>samples = 142<br/>value = [142, 0]<br/>class = 0>, fillcolor="#e58139"] ;
177 -> 183 ;
184 [label=<age &le; 65.5<br/>gini = 0.346<br/>samples = 9<br/>value = [7, 2]<br/>class = 0>, fillcolor="#eca572"] ;
176 -> 184 ;
185 [label=<gini = 0.0<br/>samples = 7<br/>value = [7, 0]<br/>class = 0>, fillcolor="#e58139"] ;
184 -> 185 ;
186 [label=<gini = 0.0<br/>samples = 2<br/>value = [0, 2]<br/>class = 1>, fillcolor="#399de5"] ;
184 -> 186 ;
187 [label=<education-num &le; 8.0<br/>gini = 0.444<br/>samples = 9<br/>value = [6, 3]<br/>class = 0>, fillcolor="#f2c09c"] ;
175 -> 187 ;
188 [label=<age &le; 63.0<br/>gini = 0.375<br/>samples = 4<br/>value = [1, 3]<br/>class = 1>, fillcolor="#7bbeee"] ;
187 -> 188 ;
189 [label=<gini = 0.0<br/>samples = 3<br/>value = [0, 3]<br/>class = 1>, fillcolor="#399de5"] ;
188 -> 189 ;
190 [label=<gini = 0.0<br/>samples = 1<br/>value = [1, 0]<br/>class = 0>, fillcolor="#e58139"] ;
188 -> 190 ;
191 [label=<gini = 0.0<br/>samples = 5<br/>value = [5, 0]<br/>class = 0>, fillcolor="#e58139"] ;
187 -> 191 ;
192 [label=<education-num &le; 6.5<br/>gini = 0.116<br/>samples = 65<br/>value = [61, 4]<br/>class = 0>, fillcolor="#e78946"] ;
154 -> 192 ;
193 [label=<sex_Female &le; 0.5<br/>gini = 0.32<br/>samples = 10<br/>value = [8, 2]<br/>class = 0>, fillcolor="#eca06a"] ;
192 -> 193 ;
194 [label=<marital-status_Never-married &le; 0.5<br/>gini = 0.444<br/>samples = 6<br/>value = [4, 2]<br/>class = 0>, fillcolor="#f2c09c"] ;
193 -> 194 ;
195 [label=<age &le; 46.5<br/>gini = 0.32<br/>samples = 5<br/>value = [4, 1]<br/>class = 0>, fillcolor="#eca06a"] ;
194 -> 195 ;
196 [label=<gini = 0.0<br/>samples = 4<br/>value = [4, 0]<br/>class = 0>, fillcolor="#e58139"] ;
195 -> 196 ;
197 [label=<gini = 0.0<br/>samples = 1<br/>value = [0, 1]<br/>class = 1>, fillcolor="#399de5"] ;
195 -> 197 ;
198 [label=<gini = 0.0<br/>samples = 1<br/>value = [0, 1]<br/>class = 1>, fillcolor="#399de5"] ;
194 -> 198 ;
199 [label=<gini = 0.0<br/>samples = 4<br/>value = [4, 0]<br/>class = 0>, fillcolor="#e58139"] ;
193 -> 199 ;
200 [label=<education-num &le; 9.5<br/>gini = 0.07<br/>samples = 55<br/>value = [53, 2]<br/>class = 0>, fillcolor="#e68640"] ;
192 -> 200 ;
201 [label=<gini = 0.0<br/>samples = 42<br/>value = [42, 0]<br/>class = 0>, fillcolor="#e58139"] ;
200 -> 201 ;
202 [label=<marital-status_Divorced &le; 0.5<br/>gini = 0.26<br/>samples = 13<br/>value = [11, 2]<br/>class = 0>, fillcolor="#ea985d"] ;
200 -> 202 ;
203 [label=<gini = 0.0<br/>samples = 7<br/>value = [7, 0]<br/>class = 0>, fillcolor="#e58139"] ;
202 -> 203 ;
204 [label=<age &le; 42.0<br/>gini = 0.444<br/>samples = 6<br/>value = [4, 2]<br/>class = 0>, fillcolor="#f2c09c"] ;
202 -> 204 ;
205 [label=<education-num &le; 11.0<br/>gini = 0.444<br/>samples = 3<br/>value = [1, 2]<br/>class = 1>, fillcolor="#9ccef2"] ;
204 -> 205 ;
206 [label=<gini = 0.0<br/>samples = 2<br/>value = [0, 2]<br/>class = 1>, fillcolor="#399de5"] ;
205 -> 206 ;
207 [label=<gini = 0.0<br/>samples = 1<br/>value = [1, 0]<br/>class = 0>, fillcolor="#e58139"] ;
205 -> 207 ;
208 [label=<gini = 0.0<br/>samples = 3<br/>value = [3, 0]<br/>class = 0>, fillcolor="#e58139"] ;
204 -> 208 ;
209 [label=<race_White &le; 0.5<br/>gini = 0.095<br/>samples = 1336<br/>value = [1269, 67]<br/>class = 0>, fillcolor="#e68843"] ;
153 -> 209 ;
210 [label=<gini = 0.0<br/>samples = 264<br/>value = [264, 0]<br/>class = 0>, fillcolor="#e58139"] ;
209 -> 210 ;
211 [label=<hours-per-week &le; 34.5<br/>gini = 0.117<br/>samples = 1072<br/>value = [1005, 67]<br/>class = 0>, fillcolor="#e78946"] ;
209 -> 211 ;
212 [label=<workclass_Self-emp-not-inc &le; 0.5<br/>gini = 0.027<br/>samples = 287<br/>value = [283, 4]<br/>class = 0>, fillcolor="#e5833c"] ;
211 -> 212 ;
213 [label=<age &le; 72.5<br/>gini = 0.007<br/>samples = 266<br/>value = [265, 1]<br/>class = 0>, fillcolor="#e5813a"] ;
212 -> 213 ;
214 [label=<gini = 0.0<br/>samples = 236<br/>value = [236, 0]<br/>class = 0>, fillcolor="#e58139"] ;
213 -> 214 ;
215 [label=<age &le; 73.5<br/>gini = 0.064<br/>samples = 30<br/>value = [29, 1]<br/>class = 0>, fillcolor="#e68540"] ;
213 -> 215 ;
216 [label=<hours-per-week &le; 21.0<br/>gini = 0.32<br/>samples = 5<br/>value = [4, 1]<br/>class = 0>, fillcolor="#eca06a"] ;
215 -> 216 ;
217 [label=<gini = 0.0<br/>samples = 3<br/>value = [3, 0]<br/>class = 0>, fillcolor="#e58139"] ;
216 -> 217 ;
218 [label=<education-num &le; 10.0<br/>gini = 0.5<br/>samples = 2<br/>value = [1, 1]<br/>class = 0>, fillcolor="#ffffff"] ;
216 -> 218 ;
219 [label=<gini = 0.0<br/>samples = 1<br/>value = [0, 1]<br/>class = 1>, fillcolor="#399de5"] ;
218 -> 219 ;
220 [label=<gini = 0.0<br/>samples = 1<br/>value = [1, 0]<br/>class = 0>, fillcolor="#e58139"] ;
218 -> 220 ;
221 [label=<gini = 0.0<br/>samples = 25<br/>value = [25, 0]<br/>class = 0>, fillcolor="#e58139"] ;
215 -> 221 ;
222 [label=<occupation_Tech-support &le; 0.5<br/>gini = 0.245<br/>samples = 21<br/>value = [18, 3]<br/>class = 0>, fillcolor="#e9965a"] ;
212 -> 222 ;
223 [label=<native-country_infrequent_sklearn &le; 0.5<br/>gini = 0.1<br/>samples = 19<br/>value = [18, 1]<br/>class = 0>, fillcolor="#e68844"] ;
222 -> 223 ;
224 [label=<gini = 0.0<br/>samples = 17<br/>value = [17, 0]<br/>class = 0>, fillcolor="#e58139"] ;
223 -> 224 ;
225 [label=<marital-status_Married-spouse-absent &le; 0.5<br/>gini = 0.5<br/>samples = 2<br/>value = [1, 1]<br/>class = 0>, fillcolor="#ffffff"] ;
223 -> 225 ;
226 [label=<gini = 0.0<br/>samples = 1<br/>value = [1, 0]<br/>class = 0>, fillcolor="#e58139"] ;
225 -> 226 ;
227 [label=<gini = 0.0<br/>samples = 1<br/>value = [0, 1]<br/>class = 1>, fillcolor="#399de5"] ;
225 -> 227 ;
228 [label=<gini = 0.0<br/>samples = 2<br/>value = [0, 2]<br/>class = 1>, fillcolor="#399de5"] ;
222 -> 228 ;
229 [label=<age &le; 53.5<br/>gini = 0.148<br/>samples = 785<br/>value = [722, 63]<br/>class = 0>, fillcolor="#e78c4a"] ;
211 -> 229 ;
230 [label=<education-num &le; 9.5<br/>gini = 0.108<br/>samples = 543<br/>value = [512, 31]<br/>class = 0>, fillcolor="#e78945"] ;
229 -> 230 ;
231 [label=<hours-per-week &le; 37.5<br/>gini = 0.052<br/>samples = 340<br/>value = [331, 9]<br/>class = 0>, fillcolor="#e6843e"] ;
230 -> 231 ;
232 [label=<occupation_Adm-clerical &le; 0.5<br/>gini = 0.229<br/>samples = 38<br/>value = [33, 5]<br/>class = 0>, fillcolor="#e99457"] ;
231 -> 232 ;
233 [label=<gini = 0.0<br/>samples = 28<br/>value = [28, 0]<br/>class = 0>, fillcolor="#e58139"] ;
232 -> 233 ;
234 [label=<hours-per-week &le; 36.0<br/>gini = 0.5<br/>samples = 10<br/>value = [5, 5]<br/>class = 0>, fillcolor="#ffffff"] ;
232 -> 234 ;
235 [label=<gini = 0.0<br/>samples = 4<br/>value = [4, 0]<br/>class = 0>, fillcolor="#e58139"] ;
234 -> 235 ;
236 [label=<gini = 0.278<br/>samples = 6<br/>value = [1, 5]<br/>class = 1>, fillcolor="#61b1ea"] ;
234 -> 236 ;
237 [label=<age &le; 52.5<br/>gini = 0.026<br/>samples = 302<br/>value = [298, 4]<br/>class = 0>, fillcolor="#e5833c"] ;
231 -> 237 ;
238 [label=<workclass_Local-gov &le; 0.5<br/>gini = 0.014<br/>samples = 288<br/>value = [286, 2]<br/>class = 0>, fillcolor="#e5823a"] ;
237 -> 238 ;
239 [label=<gini = 0.007<br/>samples = 276<br/>value = [275, 1]<br/>class = 0>, fillcolor="#e5813a"] ;
238 -> 239 ;
240 [label=<gini = 0.153<br/>samples = 12<br/>value = [11, 1]<br/>class = 0>, fillcolor="#e78c4b"] ;
238 -> 240 ;
241 [label=<occupation_Transport-moving &le; 0.5<br/>gini = 0.245<br/>samples = 14<br/>value = [12, 2]<br/>class = 0>, fillcolor="#e9965a"] ;
237 -> 241 ;
242 [label=<gini = 0.0<br/>samples = 10<br/>value = [10, 0]<br/>class = 0>, fillcolor="#e58139"] ;
241 -> 242 ;
243 [label=<gini = 0.5<br/>samples = 4<br/>value = [2, 2]<br/>class = 0>, fillcolor="#ffffff"] ;
241 -> 243 ;
244 [label=<workclass_Federal-gov &le; 0.5<br/>gini = 0.193<br/>samples = 203<br/>value = [181, 22]<br/>class = 0>, fillcolor="#e89051"] ;
230 -> 244 ;
245 [label=<occupation_Tech-support &le; 0.5<br/>gini = 0.157<br/>samples = 186<br/>value = [170, 16]<br/>class = 0>, fillcolor="#e78d4c"] ;
244 -> 245 ;
246 [label=<native-country_infrequent_sklearn &le; 0.5<br/>gini = 0.115<br/>samples = 163<br/>value = [153, 10]<br/>class = 0>, fillcolor="#e78946"] ;
245 -> 246 ;
247 [label=<gini = 0.096<br/>samples = 158<br/>value = [150, 8]<br/>class = 0>, fillcolor="#e68844"] ;
246 -> 247 ;
248 [label=<gini = 0.48<br/>samples = 5<br/>value = [3, 2]<br/>class = 0>, fillcolor="#f6d5bd"] ;
246 -> 248 ;
249 [label=<education-num &le; 10.5<br/>gini = 0.386<br/>samples = 23<br/>value = [17, 6]<br/>class = 0>, fillcolor="#eead7f"] ;
245 -> 249 ;
250 [label=<gini = 0.497<br/>samples = 13<br/>value = [7, 6]<br/>class = 0>, fillcolor="#fbede3"] ;
249 -> 250 ;
251 [label=<gini = 0.0<br/>samples = 10<br/>value = [10, 0]<br/>class = 0>, fillcolor="#e58139"] ;
249 -> 251 ;
252 [label=<age &le; 39.5<br/>gini = 0.457<br/>samples = 17<br/>value = [11, 6]<br/>class = 0>, fillcolor="#f3c6a5"] ;
244 -> 252 ;
253 [label=<marital-status_Divorced &le; 0.5<br/>gini = 0.375<br/>samples = 8<br/>value = [2, 6]<br/>class = 1>, fillcolor="#7bbeee"] ;
252 -> 253 ;
254 [label=<gini = 0.0<br/>samples = 2<br/>value = [2, 0]<br/>class = 0>, fillcolor="#e58139"] ;
253 -> 254 ;
255 [label=<gini = 0.0<br/>samples = 6<br/>value = [0, 6]<br/>class = 1>, fillcolor="#399de5"] ;
253 -> 255 ;
256 [label=<gini = 0.0<br/>samples = 9<br/>value = [9, 0]<br/>class = 0>, fillcolor="#e58139"] ;
252 -> 256 ;
257 [label=<age &le; 58.5<br/>gini = 0.229<br/>samples = 242<br/>value = [210, 32]<br/>class = 0>, fillcolor="#e99457"] ;
229 -> 257 ;
258 [label=<occupation_Other-service &le; 0.5<br/>gini = 0.332<br/>samples = 119<br/>value = [94, 25]<br/>class = 0>, fillcolor="#eca36e"] ;
257 -> 258 ;
259 [label=<marital-status_Never-married &le; 0.5<br/>gini = 0.378<br/>samples = 99<br/>value = [74, 25]<br/>class = 0>, fillcolor="#eeac7c"] ;
258 -> 259 ;
260 [label=<age &le; 54.5<br/>gini = 0.41<br/>samples = 87<br/>value = [62, 25]<br/>class = 0>, fillcolor="#efb489"] ;
259 -> 260 ;
261 [label=<gini = 0.497<br/>samples = 13<br/>value = [6, 7]<br/>class = 1>, fillcolor="#e3f1fb"] ;
260 -> 261 ;
262 [label=<gini = 0.368<br/>samples = 74<br/>value = [56, 18]<br/>class = 0>, fillcolor="#edaa79"] ;
260 -> 262 ;
263 [label=<gini = 0.0<br/>samples = 12<br/>value = [12, 0]<br/>class = 0>, fillcolor="#e58139"] ;
259 -> 263 ;
264 [label=<gini = 0.0<br/>samples = 20<br/>value = [20, 0]<br/>class = 0>, fillcolor="#e58139"] ;
258 -> 264 ;
265 [label=<occupation_Handlers-cleaners &le; 0.5<br/>gini = 0.107<br/>samples = 123<br/>value = [116, 7]<br/>class = 0>, fillcolor="#e78945"] ;
257 -> 265 ;
266 [label=<occupation_Sales &le; 0.5<br/>gini = 0.081<br/>samples = 118<br/>value = [113, 5]<br/>class = 0>, fillcolor="#e68742"] ;
265 -> 266 ;
267 [label=<occupation_Machine-op-inspct &le; 0.5<br/>gini = 0.02<br/>samples = 99<br/>value = [98, 1]<br/>class = 0>, fillcolor="#e5823b"] ;
266 -> 267 ;
268 [label=<gini = 0.0<br/>samples = 79<br/>value = [79, 0]<br/>class = 0>, fillcolor="#e58139"] ;
267 -> 268 ;
269 [label=<gini = 0.095<br/>samples = 20<br/>value = [19, 1]<br/>class = 0>, fillcolor="#e68843"] ;
267 -> 269 ;
270 [label=<age &le; 65.5<br/>gini = 0.332<br/>samples = 19<br/>value = [15, 4]<br/>class = 0>, fillcolor="#eca36e"] ;
266 -> 270 ;
271 [label=<gini = 0.0<br/>samples = 10<br/>value = [10, 0]<br/>class = 0>, fillcolor="#e58139"] ;
270 -> 271 ;
272 [label=<gini = 0.494<br/>samples = 9<br/>value = [5, 4]<br/>class = 0>, fillcolor="#fae6d7"] ;
270 -> 272 ;
273 [label=<education-num &le; 5.5<br/>gini = 0.48<br/>samples = 5<br/>value = [3, 2]<br/>class = 0>, fillcolor="#f6d5bd"] ;
265 -> 273 ;
274 [label=<gini = 0.0<br/>samples = 2<br/>value = [0, 2]<br/>class = 1>, fillcolor="#399de5"] ;
273 -> 274 ;
275 [label=<gini = 0.0<br/>samples = 3<br/>value = [3, 0]<br/>class = 0>, fillcolor="#e58139"] ;
273 -> 275 ;
276 [label=<age &le; 74.0<br/>gini = 0.375<br/>samples = 24<br/>value = [18, 6]<br/>class = 0>, fillcolor="#eeab7b"] ;
152 -> 276 ;
277 [label=<age &le; 56.5<br/>gini = 0.1<br/>samples = 19<br/>value = [18, 1]<br/>class = 0>, fillcolor="#e68844"] ;
276 -> 277 ;
278 [label=<gini = 0.0<br/>samples = 14<br/>value = [14, 0]<br/>class = 0>, fillcolor="#e58139"] ;
277 -> 278 ;
279 [label=<age &le; 59.5<br/>gini = 0.32<br/>samples = 5<br/>value = [4, 1]<br/>class = 0>, fillcolor="#eca06a"] ;
277 -> 279 ;
280 [label=<gini = 0.0<br/>samples = 1<br/>value = [0, 1]<br/>class = 1>, fillcolor="#399de5"] ;
279 -> 280 ;
281 [label=<gini = 0.0<br/>samples = 4<br/>value = [4, 0]<br/>class = 0>, fillcolor="#e58139"] ;
279 -> 281 ;
282 [label=<gini = 0.0<br/>samples = 5<br/>value = [0, 5]<br/>class = 1>, fillcolor="#399de5"] ;
276 -> 282 ;
283 [label=<workclass_Private &le; 0.5<br/>gini = 0.351<br/>samples = 66<br/>value = [51, 15]<br/>class = 0>, fillcolor="#eda673"] ;
151 -> 283 ;
284 [label=<marital-status_Widowed &le; 0.5<br/>gini = 0.478<br/>samples = 38<br/>value = [23, 15]<br/>class = 0>, fillcolor="#f6d3ba"] ;
283 -> 284 ;
285 [label=<age &le; 56.0<br/>gini = 0.412<br/>samples = 31<br/>value = [22, 9]<br/>class = 0>, fillcolor="#f0b58a"] ;
284 -> 285 ;
286 [label=<workclass_State-gov &le; 0.5<br/>gini = 0.346<br/>samples = 27<br/>value = [21, 6]<br/>class = 0>, fillcolor="#eca572"] ;
285 -> 286 ;
287 [label=<race_Black &le; 0.5<br/>gini = 0.188<br/>samples = 19<br/>value = [17, 2]<br/>class = 0>, fillcolor="#e89050"] ;
286 -> 287 ;
288 [label=<education-num &le; 10.5<br/>gini = 0.105<br/>samples = 18<br/>value = [17, 1]<br/>class = 0>, fillcolor="#e78845"] ;
287 -> 288 ;
289 [label=<gini = 0.0<br/>samples = 14<br/>value = [14, 0]<br/>class = 0>, fillcolor="#e58139"] ;
288 -> 289 ;
290 [label=<age &le; 36.5<br/>gini = 0.375<br/>samples = 4<br/>value = [3, 1]<br/>class = 0>, fillcolor="#eeab7b"] ;
288 -> 290 ;
291 [label=<gini = 0.0<br/>samples = 1<br/>value = [0, 1]<br/>class = 1>, fillcolor="#399de5"] ;
290 -> 291 ;
292 [label=<gini = 0.0<br/>samples = 3<br/>value = [3, 0]<br/>class = 0>, fillcolor="#e58139"] ;
290 -> 292 ;
293 [label=<gini = 0.0<br/>samples = 1<br/>value = [0, 1]<br/>class = 1>, fillcolor="#399de5"] ;
287 -> 293 ;
294 [label=<race_Black &le; 0.5<br/>gini = 0.5<br/>samples = 8<br/>value = [4, 4]<br/>class = 0>, fillcolor="#ffffff"] ;
286 -> 294 ;
295 [label=<age &le; 36.5<br/>gini = 0.444<br/>samples = 6<br/>value = [2, 4]<br/>class = 1>, fillcolor="#9ccef2"] ;
294 -> 295 ;
296 [label=<gini = 0.0<br/>samples = 1<br/>value = [1, 0]<br/>class = 0>, fillcolor="#e58139"] ;
295 -> 296 ;
297 [label=<age &le; 47.5<br/>gini = 0.32<br/>samples = 5<br/>value = [1, 4]<br/>class = 1>, fillcolor="#6ab6ec"] ;
295 -> 297 ;
298 [label=<gini = 0.0<br/>samples = 4<br/>value = [0, 4]<br/>class = 1>, fillcolor="#399de5"] ;
297 -> 298 ;
299 [label=<gini = 0.0<br/>samples = 1<br/>value = [1, 0]<br/>class = 0>, fillcolor="#e58139"] ;
297 -> 299 ;
300 [label=<gini = 0.0<br/>samples = 2<br/>value = [2, 0]<br/>class = 0>, fillcolor="#e58139"] ;
294 -> 300 ;
301 [label=<marital-status_Divorced &le; 0.5<br/>gini = 0.375<br/>samples = 4<br/>value = [1, 3]<br/>class = 1>, fillcolor="#7bbeee"] ;
285 -> 301 ;
302 [label=<gini = 0.0<br/>samples = 3<br/>value = [0, 3]<br/>class = 1>, fillcolor="#399de5"] ;
301 -> 302 ;
303 [label=<gini = 0.0<br/>samples = 1<br/>value = [1, 0]<br/>class = 0>, fillcolor="#e58139"] ;
301 -> 303 ;
304 [label=<race_Black &le; 0.5<br/>gini = 0.245<br/>samples = 7<br/>value = [1, 6]<br/>class = 1>, fillcolor="#5aade9"] ;
284 -> 304 ;
305 [label=<gini = 0.0<br/>samples = 6<br/>value = [0, 6]<br/>class = 1>, fillcolor="#399de5"] ;
304 -> 305 ;
306 [label=<gini = 0.0<br/>samples = 1<br/>value = [1, 0]<br/>class = 0>, fillcolor="#e58139"] ;
304 -> 306 ;
307 [label=<gini = 0.0<br/>samples = 28<br/>value = [28, 0]<br/>class = 0>, fillcolor="#e58139"] ;
283 -> 307 ;
308 [label=<age &le; 38.5<br/>gini = 0.247<br/>samples = 444<br/>value = [380, 64]<br/>class = 0>, fillcolor="#e9965a"] ;
150 -> 308 ;
309 [label=<gini = 0.0<br/>samples = 122<br/>value = [122, 0]<br/>class = 0>, fillcolor="#e58139"] ;
308 -> 309 ;
310 [label=<education-num &le; 8.5<br/>gini = 0.319<br/>samples = 322<br/>value = [258, 64]<br/>class = 0>, fillcolor="#eba06a"] ;
308 -> 310 ;
311 [label=<sex_Female &le; 0.5<br/>gini = 0.043<br/>samples = 45<br/>value = [44, 1]<br/>class = 0>, fillcolor="#e6843d"] ;
310 -> 311 ;
312 [label=<gini = 0.0<br/>samples = 34<br/>value = [34, 0]<br/>class = 0>, fillcolor="#e58139"] ;
311 -> 312 ;
313 [label=<age &le; 55.5<br/>gini = 0.165<br/>samples = 11<br/>value = [10, 1]<br/>class = 0>, fillcolor="#e88e4d"] ;
311 -> 313 ;
314 [label=<gini = 0.0<br/>samples = 8<br/>value = [8, 0]<br/>class = 0>, fillcolor="#e58139"] ;
313 -> 314 ;
315 [label=<age &le; 59.0<br/>gini = 0.444<br/>samples = 3<br/>value = [2, 1]<br/>class = 0>, fillcolor="#f2c09c"] ;
313 -> 315 ;
316 [label=<gini = 0.0<br/>samples = 1<br/>value = [0, 1]<br/>class = 1>, fillcolor="#399de5"] ;
315 -> 316 ;
317 [label=<gini = 0.0<br/>samples = 2<br/>value = [2, 0]<br/>class = 0>, fillcolor="#e58139"] ;
315 -> 317 ;
318 [label=<marital-status_Married-spouse-absent &le; 0.5<br/>gini = 0.351<br/>samples = 277<br/>value = [214, 63]<br/>class = 0>, fillcolor="#eda673"] ;
310 -> 318 ;
319 [label=<workclass_Local-gov &le; 0.5<br/>gini = 0.331<br/>samples = 263<br/>value = [208, 55]<br/>class = 0>, fillcolor="#eca26d"] ;
318 -> 319 ;
320 [label=<race_White &le; 0.5<br/>gini = 0.308<br/>samples = 247<br/>value = [200, 47]<br/>class = 0>, fillcolor="#eb9f68"] ;
319 -> 320 ;
321 [label=<gini = 0.0<br/>samples = 37<br/>value = [37, 0]<br/>class = 0>, fillcolor="#e58139"] ;
320 -> 321 ;
322 [label=<education-num &le; 9.5<br/>gini = 0.347<br/>samples = 210<br/>value = [163, 47]<br/>class = 0>, fillcolor="#eca572"] ;
320 -> 322 ;
323 [label=<age &le; 43.5<br/>gini = 0.272<br/>samples = 123<br/>value = [103, 20]<br/>class = 0>, fillcolor="#ea995f"] ;
322 -> 323 ;
324 [label=<gini = 0.0<br/>samples = 33<br/>value = [33, 0]<br/>class = 0>, fillcolor="#e58139"] ;
323 -> 324 ;
325 [label=<age &le; 44.5<br/>gini = 0.346<br/>samples = 90<br/>value = [70, 20]<br/>class = 0>, fillcolor="#eca572"] ;
323 -> 325 ;
326 [label=<relationship_Unmarried &le; 0.5<br/>gini = 0.486<br/>samples = 12<br/>value = [5, 7]<br/>class = 1>, fillcolor="#c6e3f8"] ;
325 -> 326 ;
327 [label=<marital-status_Divorced &le; 0.5<br/>gini = 0.42<br/>samples = 10<br/>value = [3, 7]<br/>class = 1>, fillcolor="#8ec7f0"] ;
326 -> 327 ;
328 [label=<gini = 0.0<br/>samples = 1<br/>value = [1, 0]<br/>class = 0>, fillcolor="#e58139"] ;
327 -> 328 ;
329 [label=<gini = 0.346<br/>samples = 9<br/>value = [2, 7]<br/>class = 1>, fillcolor="#72b9ec"] ;
327 -> 329 ;
330 [label=<gini = 0.0<br/>samples = 2<br/>value = [2, 0]<br/>class = 0>, fillcolor="#e58139"] ;
326 -> 330 ;
331 [label=<age &le; 49.5<br/>gini = 0.278<br/>samples = 78<br/>value = [65, 13]<br/>class = 0>, fillcolor="#ea9a61"] ;
325 -> 331 ;
332 [label=<gini = 0.0<br/>samples = 21<br/>value = [21, 0]<br/>class = 0>, fillcolor="#e58139"] ;
331 -> 332 ;
333 [label=<age &le; 53.5<br/>gini = 0.352<br/>samples = 57<br/>value = [44, 13]<br/>class = 0>, fillcolor="#eda674"] ;
331 -> 333 ;
334 [label=<gini = 0.493<br/>samples = 25<br/>value = [14, 11]<br/>class = 0>, fillcolor="#f9e4d5"] ;
333 -> 334 ;
335 [label=<gini = 0.117<br/>samples = 32<br/>value = [30, 2]<br/>class = 0>, fillcolor="#e78946"] ;
333 -> 335 ;
336 [label=<native-country_infrequent_sklearn &le; 0.5<br/>gini = 0.428<br/>samples = 87<br/>value = [60, 27]<br/>class = 0>, fillcolor="#f1ba92"] ;
322 -> 336 ;
337 [label=<hours-per-week &le; 32.5<br/>gini = 0.408<br/>samples = 84<br/>value = [60, 24]<br/>class = 0>, fillcolor="#efb388"] ;
336 -> 337 ;
338 [label=<gini = 0.0<br/>samples = 11<br/>value = [11, 0]<br/>class = 0>, fillcolor="#e58139"] ;
337 -> 338 ;
339 [label=<hours-per-week &le; 39.0<br/>gini = 0.441<br/>samples = 73<br/>value = [49, 24]<br/>class = 0>, fillcolor="#f2bf9a"] ;
337 -> 339 ;
340 [label=<marital-status_Never-married &le; 0.5<br/>gini = 0.444<br/>samples = 12<br/>value = [4, 8]<br/>class = 1>, fillcolor="#9ccef2"] ;
339 -> 340 ;
341 [label=<gini = 0.0<br/>samples = 3<br/>value = [3, 0]<br/>class = 0>, fillcolor="#e58139"] ;
340 -> 341 ;
342 [label=<gini = 0.198<br/>samples = 9<br/>value = [1, 8]<br/>class = 1>, fillcolor="#52a9e8"] ;
340 -> 342 ;
343 [label=<workclass_Private &le; 0.5<br/>gini = 0.387<br/>samples = 61<br/>value = [45, 16]<br/>class = 0>, fillcolor="#eeae7f"] ;
339 -> 343 ;
344 [label=<gini = 0.0<br/>samples = 12<br/>value = [12, 0]<br/>class = 0>, fillcolor="#e58139"] ;
343 -> 344 ;
345 [label=<gini = 0.44<br/>samples = 49<br/>value = [33, 16]<br/>class = 0>, fillcolor="#f2be99"] ;
343 -> 345 ;
346 [label=<gini = 0.0<br/>samples = 3<br/>value = [0, 3]<br/>class = 1>, fillcolor="#399de5"] ;
336 -> 346 ;
347 [label=<age &le; 49.5<br/>gini = 0.5<br/>samples = 16<br/>value = [8, 8]<br/>class = 0>, fillcolor="#ffffff"] ;
319 -> 347 ;
348 [label=<gini = 0.0<br/>samples = 7<br/>value = [7, 0]<br/>class = 0>, fillcolor="#e58139"] ;
347 -> 348 ;
349 [label=<race_Black &le; 0.5<br/>gini = 0.198<br/>samples = 9<br/>value = [1, 8]<br/>class = 1>, fillcolor="#52a9e8"] ;
347 -> 349 ;
350 [label=<gini = 0.0<br/>samples = 8<br/>value = [0, 8]<br/>class = 1>, fillcolor="#399de5"] ;
349 -> 350 ;
351 [label=<gini = 0.0<br/>samples = 1<br/>value = [1, 0]<br/>class = 0>, fillcolor="#e58139"] ;
349 -> 351 ;
352 [label=<age &le; 40.5<br/>gini = 0.49<br/>samples = 14<br/>value = [6, 8]<br/>class = 1>, fillcolor="#cee6f8"] ;
318 -> 352 ;
353 [label=<gini = 0.0<br/>samples = 7<br/>value = [0, 7]<br/>class = 1>, fillcolor="#399de5"] ;
352 -> 353 ;
354 [label=<hours-per-week &le; 25.0<br/>gini = 0.245<br/>samples = 7<br/>value = [6, 1]<br/>class = 0>, fillcolor="#e9965a"] ;
352 -> 354 ;
355 [label=<gini = 0.0<br/>samples = 1<br/>value = [0, 1]<br/>class = 1>, fillcolor="#399de5"] ;
354 -> 355 ;
356 [label=<gini = 0.0<br/>samples = 6<br/>value = [6, 0]<br/>class = 0>, fillcolor="#e58139"] ;
354 -> 356 ;
357 [label=<education-num &le; 10.5<br/>gini = 0.279<br/>samples = 376<br/>value = [313, 63]<br/>class = 0>, fillcolor="#ea9a61"] ;
149 -> 357 ;
358 [label=<native-country_infrequent_sklearn &le; 0.5<br/>gini = 0.247<br/>samples = 318<br/>value = [272, 46]<br/>class = 0>, fillcolor="#e9965a"] ;
357 -> 358 ;
359 [label=<relationship_Unmarried &le; 0.5<br/>gini = 0.229<br/>samples = 303<br/>value = [263, 40]<br/>class = 0>, fillcolor="#e99457"] ;
358 -> 359 ;
360 [label=<marital-status_Widowed &le; 0.5<br/>gini = 0.168<br/>samples = 195<br/>value = [177, 18]<br/>class = 0>, fillcolor="#e88e4d"] ;
359 -> 360 ;
361 [label=<age &le; 68.5<br/>gini = 0.081<br/>samples = 142<br/>value = [136, 6]<br/>class = 0>, fillcolor="#e68742"] ;
360 -> 361 ;
362 [label=<age &le; 43.5<br/>gini = 0.07<br/>samples = 138<br/>value = [133, 5]<br/>class = 0>, fillcolor="#e68640"] ;
361 -> 362 ;
363 [label=<marital-status_Divorced &le; 0.5<br/>gini = 0.114<br/>samples = 66<br/>value = [62, 4]<br/>class = 0>, fillcolor="#e78946"] ;
362 -> 363 ;
364 [label=<gini = 0.0<br/>samples = 31<br/>value = [31, 0]<br/>class = 0>, fillcolor="#e58139"] ;
363 -> 364 ;
365 [label=<sex_Male &le; 0.5<br/>gini = 0.202<br/>samples = 35<br/>value = [31, 4]<br/>class = 0>, fillcolor="#e89153"] ;
363 -> 365 ;
366 [label=<age &le; 35.5<br/>gini = 0.26<br/>samples = 26<br/>value = [22, 4]<br/>class = 0>, fillcolor="#ea985d"] ;
365 -> 366 ;
367 [label=<education-num &le; 9.5<br/>gini = 0.5<br/>samples = 2<br/>value = [1, 1]<br/>class = 0>, fillcolor="#ffffff"] ;
366 -> 367 ;
368 [label=<gini = 0.0<br/>samples = 1<br/>value = [1, 0]<br/>class = 0>, fillcolor="#e58139"] ;
367 -> 368 ;
369 [label=<gini = 0.0<br/>samples = 1<br/>value = [0, 1]<br/>class = 1>, fillcolor="#399de5"] ;
367 -> 369 ;
370 [label=<age &le; 41.5<br/>gini = 0.219<br/>samples = 24<br/>value = [21, 3]<br/>class = 0>, fillcolor="#e99355"] ;
366 -> 370 ;
371 [label=<age &le; 37.5<br/>gini = 0.111<br/>samples = 17<br/>value = [16, 1]<br/>class = 0>, fillcolor="#e78945"] ;
370 -> 371 ;
372 [label=<gini = 0.278<br/>samples = 6<br/>value = [5, 1]<br/>class = 0>, fillcolor="#ea9a61"] ;
371 -> 372 ;
373 [label=<gini = 0.0<br/>samples = 11<br/>value = [11, 0]<br/>class = 0>, fillcolor="#e58139"] ;
371 -> 373 ;
374 [label=<hours-per-week &le; 35.0<br/>gini = 0.408<br/>samples = 7<br/>value = [5, 2]<br/>class = 0>, fillcolor="#efb388"] ;
370 -> 374 ;
375 [label=<gini = 0.0<br/>samples = 1<br/>value = [0, 1]<br/>class = 1>, fillcolor="#399de5"] ;
374 -> 375 ;
376 [label=<gini = 0.278<br/>samples = 6<br/>value = [5, 1]<br/>class = 0>, fillcolor="#ea9a61"] ;
374 -> 376 ;
377 [label=<gini = 0.0<br/>samples = 9<br/>value = [9, 0]<br/>class = 0>, fillcolor="#e58139"] ;
365 -> 377 ;
378 [label=<marital-status_Never-married &le; 0.5<br/>gini = 0.027<br/>samples = 72<br/>value = [71, 1]<br/>class = 0>, fillcolor="#e5833c"] ;
362 -> 378 ;
379 [label=<gini = 0.0<br/>samples = 54<br/>value = [54, 0]<br/>class = 0>, fillcolor="#e58139"] ;
378 -> 379 ;
380 [label=<education-num &le; 9.5<br/>gini = 0.105<br/>samples = 18<br/>value = [17, 1]<br/>class = 0>, fillcolor="#e78845"] ;
378 -> 380 ;
381 [label=<gini = 0.0<br/>samples = 12<br/>value = [12, 0]<br/>class = 0>, fillcolor="#e58139"] ;
380 -> 381 ;
382 [label=<age &le; 53.5<br/>gini = 0.278<br/>samples = 6<br/>value = [5, 1]<br/>class = 0>, fillcolor="#ea9a61"] ;
380 -> 382 ;
383 [label=<gini = 0.0<br/>samples = 5<br/>value = [5, 0]<br/>class = 0>, fillcolor="#e58139"] ;
382 -> 383 ;
384 [label=<gini = 0.0<br/>samples = 1<br/>value = [0, 1]<br/>class = 1>, fillcolor="#399de5"] ;
382 -> 384 ;
385 [label=<hours-per-week &le; 27.5<br/>gini = 0.375<br/>samples = 4<br/>value = [3, 1]<br/>class = 0>, fillcolor="#eeab7b"] ;
361 -> 385 ;
386 [label=<gini = 0.0<br/>samples = 3<br/>value = [3, 0]<br/>class = 0>, fillcolor="#e58139"] ;
385 -> 386 ;
387 [label=<gini = 0.0<br/>samples = 1<br/>value = [0, 1]<br/>class = 1>, fillcolor="#399de5"] ;
385 -> 387 ;
388 [label=<education-num &le; 9.5<br/>gini = 0.35<br/>samples = 53<br/>value = [41, 12]<br/>class = 0>, fillcolor="#eda673"] ;
360 -> 388 ;
389 [label=<hours-per-week &le; 10.5<br/>gini = 0.234<br/>samples = 37<br/>value = [32, 5]<br/>class = 0>, fillcolor="#e99558"] ;
388 -> 389 ;
390 [label=<hours-per-week &le; 9.5<br/>gini = 0.463<br/>samples = 11<br/>value = [7, 4]<br/>class = 0>, fillcolor="#f4c9aa"] ;
389 -> 390 ;
391 [label=<gini = 0.0<br/>samples = 6<br/>value = [6, 0]<br/>class = 0>, fillcolor="#e58139"] ;
390 -> 391 ;
392 [label=<age &le; 71.0<br/>gini = 0.32<br/>samples = 5<br/>value = [1, 4]<br/>class = 1>, fillcolor="#6ab6ec"] ;
390 -> 392 ;
393 [label=<gini = 0.0<br/>samples = 4<br/>value = [0, 4]<br/>class = 1>, fillcolor="#399de5"] ;
392 -> 393 ;
394 [label=<gini = 0.0<br/>samples = 1<br/>value = [1, 0]<br/>class = 0>, fillcolor="#e58139"] ;
392 -> 394 ;
395 [label=<age &le; 72.0<br/>gini = 0.074<br/>samples = 26<br/>value = [25, 1]<br/>class = 0>, fillcolor="#e68641"] ;
389 -> 395 ;
396 [label=<gini = 0.0<br/>samples = 22<br/>value = [22, 0]<br/>class = 0>, fillcolor="#e58139"] ;
395 -> 396 ;
397 [label=<hours-per-week &le; 27.5<br/>gini = 0.375<br/>samples = 4<br/>value = [3, 1]<br/>class = 0>, fillcolor="#eeab7b"] ;
395 -> 397 ;
398 [label=<hours-per-week &le; 18.5<br/>gini = 0.5<br/>samples = 2<br/>value = [1, 1]<br/>class = 0>, fillcolor="#ffffff"] ;
397 -> 398 ;
399 [label=<gini = 0.0<br/>samples = 1<br/>value = [1, 0]<br/>class = 0>, fillcolor="#e58139"] ;
398 -> 399 ;
400 [label=<gini = 0.0<br/>samples = 1<br/>value = [0, 1]<br/>class = 1>, fillcolor="#399de5"] ;
398 -> 400 ;
401 [label=<gini = 0.0<br/>samples = 2<br/>value = [2, 0]<br/>class = 0>, fillcolor="#e58139"] ;
397 -> 401 ;
402 [label=<hours-per-week &le; 36.0<br/>gini = 0.492<br/>samples = 16<br/>value = [9, 7]<br/>class = 0>, fillcolor="#f9e3d3"] ;
388 -> 402 ;
403 [label=<gini = 0.0<br/>samples = 7<br/>value = [7, 0]<br/>class = 0>, fillcolor="#e58139"] ;
402 -> 403 ;
404 [label=<race_White &le; 0.5<br/>gini = 0.346<br/>samples = 9<br/>value = [2, 7]<br/>class = 1>, fillcolor="#72b9ec"] ;
402 -> 404 ;
405 [label=<gini = 0.0<br/>samples = 2<br/>value = [2, 0]<br/>class = 0>, fillcolor="#e58139"] ;
404 -> 405 ;
406 [label=<gini = 0.0<br/>samples = 7<br/>value = [0, 7]<br/>class = 1>, fillcolor="#399de5"] ;
404 -> 406 ;
407 [label=<education-num &le; 9.5<br/>gini = 0.324<br/>samples = 108<br/>value = [86, 22]<br/>class = 0>, fillcolor="#eca16c"] ;
359 -> 407 ;
408 [label=<age &le; 42.5<br/>gini = 0.422<br/>samples = 66<br/>value = [46, 20]<br/>class = 0>, fillcolor="#f0b88f"] ;
407 -> 408 ;
409 [label=<age &le; 35.5<br/>gini = 0.165<br/>samples = 22<br/>value = [20, 2]<br/>class = 0>, fillcolor="#e88e4d"] ;
408 -> 409 ;
410 [label=<age &le; 34.5<br/>gini = 0.375<br/>samples = 8<br/>value = [6, 2]<br/>class = 0>, fillcolor="#eeab7b"] ;
409 -> 410 ;
411 [label=<gini = 0.0<br/>samples = 3<br/>value = [3, 0]<br/>class = 0>, fillcolor="#e58139"] ;
410 -> 411 ;
412 [label=<hours-per-week &le; 35.0<br/>gini = 0.48<br/>samples = 5<br/>value = [3, 2]<br/>class = 0>, fillcolor="#f6d5bd"] ;
410 -> 412 ;
413 [label=<gini = 0.0<br/>samples = 1<br/>value = [1, 0]<br/>class = 0>, fillcolor="#e58139"] ;
412 -> 413 ;
414 [label=<gini = 0.5<br/>samples = 4<br/>value = [2, 2]<br/>class = 0>, fillcolor="#ffffff"] ;
412 -> 414 ;
415 [label=<gini = 0.0<br/>samples = 14<br/>value = [14, 0]<br/>class = 0>, fillcolor="#e58139"] ;
409 -> 415 ;
416 [label=<sex_Female &le; 0.5<br/>gini = 0.483<br/>samples = 44<br/>value = [26, 18]<br/>class = 0>, fillcolor="#f7d8c2"] ;
408 -> 416 ;
417 [label=<marital-status_Divorced &le; 0.5<br/>gini = 0.397<br/>samples = 11<br/>value = [3, 8]<br/>class = 1>, fillcolor="#83c2ef"] ;
416 -> 417 ;
418 [label=<age &le; 59.5<br/>gini = 0.198<br/>samples = 9<br/>value = [1, 8]<br/>class = 1>, fillcolor="#52a9e8"] ;
417 -> 418 ;
419 [label=<gini = 0.0<br/>samples = 5<br/>value = [0, 5]<br/>class = 1>, fillcolor="#399de5"] ;
418 -> 419 ;
420 [label=<age &le; 66.0<br/>gini = 0.375<br/>samples = 4<br/>value = [1, 3]<br/>class = 1>, fillcolor="#7bbeee"] ;
418 -> 420 ;
421 [label=<gini = 0.0<br/>samples = 1<br/>value = [1, 0]<br/>class = 0>, fillcolor="#e58139"] ;
420 -> 421 ;
422 [label=<gini = 0.0<br/>samples = 3<br/>value = [0, 3]<br/>class = 1>, fillcolor="#399de5"] ;
420 -> 422 ;
423 [label=<gini = 0.0<br/>samples = 2<br/>value = [2, 0]<br/>class = 0>, fillcolor="#e58139"] ;
417 -> 423 ;
424 [label=<marital-status_Divorced &le; 0.5<br/>gini = 0.422<br/>samples = 33<br/>value = [23, 10]<br/>class = 0>, fillcolor="#f0b88f"] ;
416 -> 424 ;
425 [label=<gini = 0.0<br/>samples = 12<br/>value = [12, 0]<br/>class = 0>, fillcolor="#e58139"] ;
424 -> 425 ;
426 [label=<age &le; 47.5<br/>gini = 0.499<br/>samples = 21<br/>value = [11, 10]<br/>class = 0>, fillcolor="#fdf4ed"] ;
424 -> 426 ;
427 [label=<hours-per-week &le; 39.0<br/>gini = 0.444<br/>samples = 15<br/>value = [5, 10]<br/>class = 1>, fillcolor="#9ccef2"] ;
426 -> 427 ;
428 [label=<gini = 0.0<br/>samples = 4<br/>value = [0, 4]<br/>class = 1>, fillcolor="#399de5"] ;
427 -> 428 ;
429 [label=<workclass_State-gov &le; 0.5<br/>gini = 0.496<br/>samples = 11<br/>value = [5, 6]<br/>class = 1>, fillcolor="#deeffb"] ;
427 -> 429 ;
430 [label=<education-num &le; 7.0<br/>gini = 0.444<br/>samples = 9<br/>value = [3, 6]<br/>class = 1>, fillcolor="#9ccef2"] ;
429 -> 430 ;
431 [label=<gini = 0.0<br/>samples = 1<br/>value = [1, 0]<br/>class = 0>, fillcolor="#e58139"] ;
430 -> 431 ;
432 [label=<gini = 0.375<br/>samples = 8<br/>value = [2, 6]<br/>class = 1>, fillcolor="#7bbeee"] ;
430 -> 432 ;
433 [label=<gini = 0.0<br/>samples = 2<br/>value = [2, 0]<br/>class = 0>, fillcolor="#e58139"] ;
429 -> 433 ;
434 [label=<gini = 0.0<br/>samples = 6<br/>value = [6, 0]<br/>class = 0>, fillcolor="#e58139"] ;
426 -> 434 ;
435 [label=<workclass_Federal-gov &le; 0.5<br/>gini = 0.091<br/>samples = 42<br/>value = [40, 2]<br/>class = 0>, fillcolor="#e68743"] ;
407 -> 435 ;
436 [label=<gini = 0.0<br/>samples = 36<br/>value = [36, 0]<br/>class = 0>, fillcolor="#e58139"] ;
435 -> 436 ;
437 [label=<age &le; 37.0<br/>gini = 0.444<br/>samples = 6<br/>value = [4, 2]<br/>class = 0>, fillcolor="#f2c09c"] ;
435 -> 437 ;
438 [label=<gini = 0.0<br/>samples = 2<br/>value = [0, 2]<br/>class = 1>, fillcolor="#399de5"] ;
437 -> 438 ;
439 [label=<gini = 0.0<br/>samples = 4<br/>value = [4, 0]<br/>class = 0>, fillcolor="#e58139"] ;
437 -> 439 ;
440 [label=<relationship_Not-in-family &le; 0.5<br/>gini = 0.48<br/>samples = 15<br/>value = [9, 6]<br/>class = 0>, fillcolor="#f6d5bd"] ;
358 -> 440 ;
441 [label=<gini = 0.0<br/>samples = 6<br/>value = [6, 0]<br/>class = 0>, fillcolor="#e58139"] ;
440 -> 441 ;
442 [label=<age &le; 51.0<br/>gini = 0.444<br/>samples = 9<br/>value = [3, 6]<br/>class = 1>, fillcolor="#9ccef2"] ;
440 -> 442 ;
443 [label=<education-num &le; 9.5<br/>gini = 0.245<br/>samples = 7<br/>value = [1, 6]<br/>class = 1>, fillcolor="#5aade9"] ;
442 -> 443 ;
444 [label=<gini = 0.0<br/>samples = 1<br/>value = [1, 0]<br/>class = 0>, fillcolor="#e58139"] ;
443 -> 444 ;
445 [label=<gini = 0.0<br/>samples = 6<br/>value = [0, 6]<br/>class = 1>, fillcolor="#399de5"] ;
443 -> 445 ;
446 [label=<gini = 0.0<br/>samples = 2<br/>value = [2, 0]<br/>class = 0>, fillcolor="#e58139"] ;
442 -> 446 ;
447 [label=<age &le; 57.0<br/>gini = 0.414<br/>samples = 58<br/>value = [41, 17]<br/>class = 0>, fillcolor="#f0b58b"] ;
357 -> 447 ;
448 [label=<relationship_Not-in-family &le; 0.5<br/>gini = 0.298<br/>samples = 44<br/>value = [36, 8]<br/>class = 0>, fillcolor="#eb9d65"] ;
447 -> 448 ;
449 [label=<gini = 0.0<br/>samples = 19<br/>value = [19, 0]<br/>class = 0>, fillcolor="#e58139"] ;
448 -> 449 ;
450 [label=<workclass_Private &le; 0.5<br/>gini = 0.435<br/>samples = 25<br/>value = [17, 8]<br/>class = 0>, fillcolor="#f1bc96"] ;
448 -> 450 ;
451 [label=<gini = 0.0<br/>samples = 10<br/>value = [10, 0]<br/>class = 0>, fillcolor="#e58139"] ;
450 -> 451 ;
452 [label=<age &le; 46.0<br/>gini = 0.498<br/>samples = 15<br/>value = [7, 8]<br/>class = 1>, fillcolor="#e6f3fc"] ;
450 -> 452 ;
453 [label=<race_Black &le; 0.5<br/>gini = 0.444<br/>samples = 12<br/>value = [4, 8]<br/>class = 1>, fillcolor="#9ccef2"] ;
452 -> 453 ;
454 [label=<age &le; 38.5<br/>gini = 0.397<br/>samples = 11<br/>value = [3, 8]<br/>class = 1>, fillcolor="#83c2ef"] ;
453 -> 454 ;
455 [label=<gini = 0.0<br/>samples = 1<br/>value = [1, 0]<br/>class = 0>, fillcolor="#e58139"] ;
454 -> 455 ;
456 [label=<marital-status_Divorced &le; 0.5<br/>gini = 0.32<br/>samples = 10<br/>value = [2, 8]<br/>class = 1>, fillcolor="#6ab6ec"] ;
454 -> 456 ;
457 [label=<gini = 0.0<br/>samples = 1<br/>value = [1, 0]<br/>class = 0>, fillcolor="#e58139"] ;
456 -> 457 ;
458 [label=<sex_Female &le; 0.5<br/>gini = 0.198<br/>samples = 9<br/>value = [1, 8]<br/>class = 1>, fillcolor="#52a9e8"] ;
456 -> 458 ;
459 [label=<gini = 0.0<br/>samples = 5<br/>value = [0, 5]<br/>class = 1>, fillcolor="#399de5"] ;
458 -> 459 ;
460 [label=<gini = 0.375<br/>samples = 4<br/>value = [1, 3]<br/>class = 1>, fillcolor="#7bbeee"] ;
458 -> 460 ;
461 [label=<gini = 0.0<br/>samples = 1<br/>value = [1, 0]<br/>class = 0>, fillcolor="#e58139"] ;
453 -> 461 ;
462 [label=<gini = 0.0<br/>samples = 3<br/>value = [3, 0]<br/>class = 0>, fillcolor="#e58139"] ;
452 -> 462 ;
463 [label=<age &le; 65.5<br/>gini = 0.459<br/>samples = 14<br/>value = [5, 9]<br/>class = 1>, fillcolor="#a7d3f3"] ;
447 -> 463 ;
464 [label=<gini = 0.0<br/>samples = 9<br/>value = [0, 9]<br/>class = 1>, fillcolor="#399de5"] ;
463 -> 464 ;
465 [label=<gini = 0.0<br/>samples = 5<br/>value = [5, 0]<br/>class = 0>, fillcolor="#e58139"] ;
463 -> 465 ;
466 [label=<sex_Female &le; 0.5<br/>gini = 0.348<br/>samples = 254<br/>value = [197, 57]<br/>class = 0>, fillcolor="#eda572"] ;
148 -> 466 ;
467 [label=<education-num &le; 9.5<br/>gini = 0.491<br/>samples = 67<br/>value = [38, 29]<br/>class = 0>, fillcolor="#f9e1d0"] ;
466 -> 467 ;
468 [label=<age &le; 41.5<br/>gini = 0.227<br/>samples = 23<br/>value = [20, 3]<br/>class = 0>, fillcolor="#e99457"] ;
467 -> 468 ;
469 [label=<marital-status_Divorced &le; 0.5<br/>gini = 0.5<br/>samples = 6<br/>value = [3, 3]<br/>class = 0>, fillcolor="#ffffff"] ;
468 -> 469 ;
470 [label=<race_White &le; 0.5<br/>gini = 0.48<br/>samples = 5<br/>value = [2, 3]<br/>class = 1>, fillcolor="#bddef6"] ;
469 -> 470 ;
471 [label=<gini = 0.0<br/>samples = 1<br/>value = [0, 1]<br/>class = 1>, fillcolor="#399de5"] ;
470 -> 471 ;
472 [label=<gini = 0.5<br/>samples = 4<br/>value = [2, 2]<br/>class = 0>, fillcolor="#ffffff"] ;
470 -> 472 ;
473 [label=<gini = 0.0<br/>samples = 1<br/>value = [1, 0]<br/>class = 0>, fillcolor="#e58139"] ;
469 -> 473 ;
474 [label=<gini = 0.0<br/>samples = 17<br/>value = [17, 0]<br/>class = 0>, fillcolor="#e58139"] ;
468 -> 474 ;
475 [label=<hours-per-week &le; 9.5<br/>gini = 0.483<br/>samples = 44<br/>value = [18, 26]<br/>class = 1>, fillcolor="#c2e1f7"] ;
467 -> 475 ;
476 [label=<gini = 0.0<br/>samples = 3<br/>value = [3, 0]<br/>class = 0>, fillcolor="#e58139"] ;
475 -> 476 ;
477 [label=<age &le; 51.0<br/>gini = 0.464<br/>samples = 41<br/>value = [15, 26]<br/>class = 1>, fillcolor="#abd6f4"] ;
475 -> 477 ;
478 [label=<age &le; 42.5<br/>gini = 0.499<br/>samples = 31<br/>value = [15, 16]<br/>class = 1>, fillcolor="#f3f9fd"] ;
477 -> 478 ;
479 [label=<relationship_Not-in-family &le; 0.5<br/>gini = 0.444<br/>samples = 24<br/>value = [8, 16]<br/>class = 1>, fillcolor="#9ccef2"] ;
478 -> 479 ;
480 [label=<gini = 0.0<br/>samples = 3<br/>value = [3, 0]<br/>class = 0>, fillcolor="#e58139"] ;
479 -> 480 ;
481 [label=<workclass_State-gov &le; 0.5<br/>gini = 0.363<br/>samples = 21<br/>value = [5, 16]<br/>class = 1>, fillcolor="#77bced"] ;
479 -> 481 ;
482 [label=<age &le; 38.5<br/>gini = 0.32<br/>samples = 20<br/>value = [4, 16]<br/>class = 1>, fillcolor="#6ab6ec"] ;
481 -> 482 ;
483 [label=<age &le; 35.0<br/>gini = 0.49<br/>samples = 7<br/>value = [3, 4]<br/>class = 1>, fillcolor="#cee6f8"] ;
482 -> 483 ;
484 [label=<gini = 0.0<br/>samples = 3<br/>value = [0, 3]<br/>class = 1>, fillcolor="#399de5"] ;
483 -> 484 ;
485 [label=<workclass_Private &le; 0.5<br/>gini = 0.375<br/>samples = 4<br/>value = [3, 1]<br/>class = 0>, fillcolor="#eeab7b"] ;
483 -> 485 ;
486 [label=<gini = 0.0<br/>samples = 2<br/>value = [2, 0]<br/>class = 0>, fillcolor="#e58139"] ;
485 -> 486 ;
487 [label=<education-num &le; 10.5<br/>gini = 0.5<br/>samples = 2<br/>value = [1, 1]<br/>class = 0>, fillcolor="#ffffff"] ;
485 -> 487 ;
488 [label=<gini = 0.0<br/>samples = 1<br/>value = [1, 0]<br/>class = 0>, fillcolor="#e58139"] ;
487 -> 488 ;
489 [label=<gini = 0.0<br/>samples = 1<br/>value = [0, 1]<br/>class = 1>, fillcolor="#399de5"] ;
487 -> 489 ;
490 [label=<marital-status_Divorced &le; 0.5<br/>gini = 0.142<br/>samples = 13<br/>value = [1, 12]<br/>class = 1>, fillcolor="#49a5e7"] ;
482 -> 490 ;
491 [label=<gini = 0.0<br/>samples = 12<br/>value = [0, 12]<br/>class = 1>, fillcolor="#399de5"] ;
490 -> 491 ;
492 [label=<gini = 0.0<br/>samples = 1<br/>value = [1, 0]<br/>class = 0>, fillcolor="#e58139"] ;
490 -> 492 ;
493 [label=<gini = 0.0<br/>samples = 1<br/>value = [1, 0]<br/>class = 0>, fillcolor="#e58139"] ;
481 -> 493 ;
494 [label=<gini = 0.0<br/>samples = 7<br/>value = [7, 0]<br/>class = 0>, fillcolor="#e58139"] ;
478 -> 494 ;
495 [label=<gini = 0.0<br/>samples = 10<br/>value = [0, 10]<br/>class = 1>, fillcolor="#399de5"] ;
477 -> 495 ;
496 [label=<education-num &le; 10.5<br/>gini = 0.255<br/>samples = 187<br/>value = [159, 28]<br/>class = 0>, fillcolor="#ea975c"] ;
466 -> 496 ;
497 [label=<relationship_Own-child &le; 0.5<br/>gini = 0.112<br/>samples = 118<br/>value = [111, 7]<br/>class = 0>, fillcolor="#e78945"] ;
496 -> 497 ;
498 [label=<age &le; 50.5<br/>gini = 0.054<br/>samples = 109<br/>value = [106, 3]<br/>class = 0>, fillcolor="#e6853f"] ;
497 -> 498 ;
499 [label=<gini = 0.0<br/>samples = 59<br/>value = [59, 0]<br/>class = 0>, fillcolor="#e58139"] ;
498 -> 499 ;
500 [label=<age &le; 52.0<br/>gini = 0.113<br/>samples = 50<br/>value = [47, 3]<br/>class = 0>, fillcolor="#e78946"] ;
498 -> 500 ;
501 [label=<relationship_Not-in-family &le; 0.5<br/>gini = 0.444<br/>samples = 9<br/>value = [6, 3]<br/>class = 0>, fillcolor="#f2c09c"] ;
500 -> 501 ;
502 [label=<marital-status_Divorced &le; 0.5<br/>gini = 0.48<br/>samples = 5<br/>value = [2, 3]<br/>class = 1>, fillcolor="#bddef6"] ;
501 -> 502 ;
503 [label=<gini = 0.0<br/>samples = 2<br/>value = [2, 0]<br/>class = 0>, fillcolor="#e58139"] ;
502 -> 503 ;
504 [label=<gini = 0.0<br/>samples = 3<br/>value = [0, 3]<br/>class = 1>, fillcolor="#399de5"] ;
502 -> 504 ;
505 [label=<gini = 0.0<br/>samples = 4<br/>value = [4, 0]<br/>class = 0>, fillcolor="#e58139"] ;
501 -> 505 ;
506 [label=<gini = 0.0<br/>samples = 41<br/>value = [41, 0]<br/>class = 0>, fillcolor="#e58139"] ;
500 -> 506 ;
507 [label=<education-num &le; 9.5<br/>gini = 0.494<br/>samples = 9<br/>value = [5, 4]<br/>class = 0>, fillcolor="#fae6d7"] ;
497 -> 507 ;
508 [label=<gini = 0.0<br/>samples = 4<br/>value = [0, 4]<br/>class = 1>, fillcolor="#399de5"] ;
507 -> 508 ;
509 [label=<gini = 0.0<br/>samples = 5<br/>value = [5, 0]<br/>class = 0>, fillcolor="#e58139"] ;
507 -> 509 ;
510 [label=<hours-per-week &le; 39.0<br/>gini = 0.423<br/>samples = 69<br/>value = [48, 21]<br/>class = 0>, fillcolor="#f0b890"] ;
496 -> 510 ;
511 [label=<gini = 0.0<br/>samples = 22<br/>value = [22, 0]<br/>class = 0>, fillcolor="#e58139"] ;
510 -> 511 ;
512 [label=<age &le; 50.5<br/>gini = 0.494<br/>samples = 47<br/>value = [26, 21]<br/>class = 0>, fillcolor="#fae7d9"] ;
510 -> 512 ;
513 [label=<age &le; 43.5<br/>gini = 0.499<br/>samples = 38<br/>value = [18, 20]<br/>class = 1>, fillcolor="#ebf5fc"] ;
512 -> 513 ;
514 [label=<relationship_Unmarried &le; 0.5<br/>gini = 0.486<br/>samples = 24<br/>value = [14, 10]<br/>class = 0>, fillcolor="#f8dbc6"] ;
513 -> 514 ;
515 [label=<gini = 0.0<br/>samples = 8<br/>value = [8, 0]<br/>class = 0>, fillcolor="#e58139"] ;
514 -> 515 ;
516 [label=<age &le; 41.0<br/>gini = 0.469<br/>samples = 16<br/>value = [6, 10]<br/>class = 1>, fillcolor="#b0d8f5"] ;
514 -> 516 ;
517 [label=<education-num &le; 11.5<br/>gini = 0.32<br/>samples = 10<br/>value = [2, 8]<br/>class = 1>, fillcolor="#6ab6ec"] ;
516 -> 517 ;
518 [label=<age &le; 37.5<br/>gini = 0.198<br/>samples = 9<br/>value = [1, 8]<br/>class = 1>, fillcolor="#52a9e8"] ;
517 -> 518 ;
519 [label=<gini = 0.245<br/>samples = 7<br/>value = [1, 6]<br/>class = 1>, fillcolor="#5aade9"] ;
518 -> 519 ;
520 [label=<gini = 0.0<br/>samples = 2<br/>value = [0, 2]<br/>class = 1>, fillcolor="#399de5"] ;
518 -> 520 ;
521 [label=<gini = 0.0<br/>samples = 1<br/>value = [1, 0]<br/>class = 0>, fillcolor="#e58139"] ;
517 -> 521 ;
522 [label=<native-country_infrequent_sklearn &le; 0.5<br/>gini = 0.444<br/>samples = 6<br/>value = [4, 2]<br/>class = 0>, fillcolor="#f2c09c"] ;
516 -> 522 ;
523 [label=<gini = 0.0<br/>samples = 4<br/>value = [4, 0]<br/>class = 0>, fillcolor="#e58139"] ;
522 -> 523 ;
524 [label=<gini = 0.0<br/>samples = 2<br/>value = [0, 2]<br/>class = 1>, fillcolor="#399de5"] ;
522 -> 524 ;
525 [label=<marital-status_Separated &le; 0.5<br/>gini = 0.408<br/>samples = 14<br/>value = [4, 10]<br/>class = 1>, fillcolor="#88c4ef"] ;
513 -> 525 ;
526 [label=<capital-loss &le; 1616.5<br/>gini = 0.355<br/>samples = 13<br/>value = [3, 10]<br/>class = 1>, fillcolor="#74baed"] ;
525 -> 526 ;
527 [label=<workclass_Private &le; 0.5<br/>gini = 0.278<br/>samples = 12<br/>value = [2, 10]<br/>class = 1>, fillcolor="#61b1ea"] ;
526 -> 527 ;
528 [label=<gini = 0.0<br/>samples = 1<br/>value = [1, 0]<br/>class = 0>, fillcolor="#e58139"] ;
527 -> 528 ;
529 [label=<education-num &le; 11.5<br/>gini = 0.165<br/>samples = 11<br/>value = [1, 10]<br/>class = 1>, fillcolor="#4da7e8"] ;
527 -> 529 ;
530 [label=<gini = 0.0<br/>samples = 7<br/>value = [0, 7]<br/>class = 1>, fillcolor="#399de5"] ;
529 -> 530 ;
531 [label=<age &le; 45.0<br/>gini = 0.375<br/>samples = 4<br/>value = [1, 3]<br/>class = 1>, fillcolor="#7bbeee"] ;
529 -> 531 ;
532 [label=<gini = 0.0<br/>samples = 3<br/>value = [0, 3]<br/>class = 1>, fillcolor="#399de5"] ;
531 -> 532 ;
533 [label=<gini = 0.0<br/>samples = 1<br/>value = [1, 0]<br/>class = 0>, fillcolor="#e58139"] ;
531 -> 533 ;
534 [label=<gini = 0.0<br/>samples = 1<br/>value = [1, 0]<br/>class = 0>, fillcolor="#e58139"] ;
526 -> 534 ;
535 [label=<gini = 0.0<br/>samples = 1<br/>value = [1, 0]<br/>class = 0>, fillcolor="#e58139"] ;
525 -> 535 ;
536 [label=<workclass_Federal-gov &le; 0.5<br/>gini = 0.198<br/>samples = 9<br/>value = [8, 1]<br/>class = 0>, fillcolor="#e89152"] ;
512 -> 536 ;
537 [label=<gini = 0.0<br/>samples = 8<br/>value = [8, 0]<br/>class = 0>, fillcolor="#e58139"] ;
536 -> 537 ;
538 [label=<gini = 0.0<br/>samples = 1<br/>value = [0, 1]<br/>class = 1>, fillcolor="#399de5"] ;
536 -> 538 ;
539 [label=<hours-per-week &le; 32.5<br/>gini = 0.355<br/>samples = 13<br/>value = [3, 10]<br/>class = 1>, fillcolor="#74baed"] ;
147 -> 539 ;
540 [label=<gini = 0.0<br/>samples = 2<br/>value = [2, 0]<br/>class = 0>, fillcolor="#e58139"] ;
539 -> 540 ;
541 [label=<education-num &le; 11.0<br/>gini = 0.165<br/>samples = 11<br/>value = [1, 10]<br/>class = 1>, fillcolor="#4da7e8"] ;
539 -> 541 ;
542 [label=<gini = 0.0<br/>samples = 10<br/>value = [0, 10]<br/>class = 1>, fillcolor="#399de5"] ;
541 -> 542 ;
543 [label=<gini = 0.0<br/>samples = 1<br/>value = [1, 0]<br/>class = 0>, fillcolor="#e58139"] ;
541 -> 543 ;
544 [label=<age &le; 58.0<br/>gini = 0.478<br/>samples = 43<br/>value = [17, 26]<br/>class = 1>, fillcolor="#baddf6"] ;
4 -> 544 ;
545 [label=<hours-per-week &le; 37.0<br/>gini = 0.401<br/>samples = 36<br/>value = [10, 26]<br/>class = 1>, fillcolor="#85c3ef"] ;
544 -> 545 ;
546 [label=<gini = 0.0<br/>samples = 3<br/>value = [3, 0]<br/>class = 0>, fillcolor="#e58139"] ;
545 -> 546 ;
547 [label=<native-country_United-States &le; 0.5<br/>gini = 0.334<br/>samples = 33<br/>value = [7, 26]<br/>class = 1>, fillcolor="#6eb7ec"] ;
545 -> 547 ;
548 [label=<gini = 0.0<br/>samples = 2<br/>value = [2, 0]<br/>class = 0>, fillcolor="#e58139"] ;
547 -> 548 ;
549 [label=<occupation_Machine-op-inspct &le; 0.5<br/>gini = 0.271<br/>samples = 31<br/>value = [5, 26]<br/>class = 1>, fillcolor="#5fb0ea"] ;
547 -> 549 ;
550 [label=<workclass_Federal-gov &le; 0.5<br/>gini = 0.185<br/>samples = 29<br/>value = [3, 26]<br/>class = 1>, fillcolor="#50a8e8"] ;
549 -> 550 ;
551 [label=<capital-loss &le; 3297.0<br/>gini = 0.133<br/>samples = 28<br/>value = [2, 26]<br/>class = 1>, fillcolor="#48a5e7"] ;
550 -> 551 ;
552 [label=<occupation_Craft-repair &le; 0.5<br/>gini = 0.071<br/>samples = 27<br/>value = [1, 26]<br/>class = 1>, fillcolor="#41a1e6"] ;
551 -> 552 ;
553 [label=<gini = 0.0<br/>samples = 26<br/>value = [0, 26]<br/>class = 1>, fillcolor="#399de5"] ;
552 -> 553 ;
554 [label=<gini = 0.0<br/>samples = 1<br/>value = [1, 0]<br/>class = 0>, fillcolor="#e58139"] ;
552 -> 554 ;
555 [label=<gini = 0.0<br/>samples = 1<br/>value = [1, 0]<br/>class = 0>, fillcolor="#e58139"] ;
551 -> 555 ;
556 [label=<gini = 0.0<br/>samples = 1<br/>value = [1, 0]<br/>class = 0>, fillcolor="#e58139"] ;
550 -> 556 ;
557 [label=<gini = 0.0<br/>samples = 2<br/>value = [2, 0]<br/>class = 0>, fillcolor="#e58139"] ;
549 -> 557 ;
558 [label=<gini = 0.0<br/>samples = 7<br/>value = [7, 0]<br/>class = 0>, fillcolor="#e58139"] ;
544 -> 558 ;
559 [label=<capital-loss &le; 2129.5<br/>gini = 0.313<br/>samples = 2256<br/>value = [1818, 438]<br/>class = 0>, fillcolor="#eb9f69"] ;
3 -> 559 ;
560 [label=<age &le; 33.5<br/>gini = 0.298<br/>samples = 2214<br/>value = [1811, 403]<br/>class = 0>, fillcolor="#eb9d65"] ;
559 -> 560 ;
561 [label=<workclass_Private &le; 0.5<br/>gini = 0.173<br/>samples = 1032<br/>value = [933, 99]<br/>class = 0>, fillcolor="#e88e4e"] ;
560 -> 561 ;
562 [label=<marital-status_Married-spouse-absent &le; 0.5<br/>gini = 0.374<br/>samples = 173<br/>value = [130, 43]<br/>class = 0>, fillcolor="#eeab7a"] ;
561 -> 562 ;
563 [label=<occupation_Exec-managerial &le; 0.5<br/>gini = 0.326<br/>samples = 161<br/>value = [128, 33]<br/>class = 0>, fillcolor="#eca16c"] ;
562 -> 563 ;
564 [label=<age &le; 25.5<br/>gini = 0.249<br/>samples = 137<br/>value = [117, 20]<br/>class = 0>, fillcolor="#e9975b"] ;
563 -> 564 ;
565 [label=<gini = 0.0<br/>samples = 47<br/>value = [47, 0]<br/>class = 0>, fillcolor="#e58139"] ;
564 -> 565 ;
566 [label=<race_Asian-Pac-Islander &le; 0.5<br/>gini = 0.346<br/>samples = 90<br/>value = [70, 20]<br/>class = 0>, fillcolor="#eca572"] ;
564 -> 566 ;
567 [label=<relationship_Not-in-family &le; 0.5<br/>gini = 0.314<br/>samples = 87<br/>value = [70, 17]<br/>class = 0>, fillcolor="#eba069"] ;
566 -> 567 ;
568 [label=<gini = 0.0<br/>samples = 33<br/>value = [33, 0]<br/>class = 0>, fillcolor="#e58139"] ;
567 -> 568 ;
569 [label=<hours-per-week &le; 58.0<br/>gini = 0.431<br/>samples = 54<br/>value = [37, 17]<br/>class = 0>, fillcolor="#f1bb94"] ;
567 -> 569 ;
570 [label=<age &le; 28.5<br/>gini = 0.491<br/>samples = 37<br/>value = [21, 16]<br/>class = 0>, fillcolor="#f9e1d0"] ;
569 -> 570 ;
571 [label=<gini = 0.0<br/>samples = 7<br/>value = [7, 0]<br/>class = 0>, fillcolor="#e58139"] ;
570 -> 571 ;
572 [label=<age &le; 31.5<br/>gini = 0.498<br/>samples = 30<br/>value = [14, 16]<br/>class = 1>, fillcolor="#e6f3fc"] ;
570 -> 572 ;
573 [label=<occupation_Protective-serv &le; 0.5<br/>gini = 0.461<br/>samples = 25<br/>value = [9, 16]<br/>class = 1>, fillcolor="#a8d4f4"] ;
572 -> 573 ;
574 [label=<education-num &le; 9.5<br/>gini = 0.499<br/>samples = 19<br/>value = [9, 10]<br/>class = 1>, fillcolor="#ebf5fc"] ;
573 -> 574 ;
575 [label=<hours-per-week &le; 47.5<br/>gini = 0.355<br/>samples = 13<br/>value = [3, 10]<br/>class = 1>, fillcolor="#74baed"] ;
574 -> 575 ;
576 [label=<education-num &le; 8.0<br/>gini = 0.5<br/>samples = 6<br/>value = [3, 3]<br/>class = 0>, fillcolor="#ffffff"] ;
575 -> 576 ;
577 [label=<gini = 0.0<br/>samples = 3<br/>value = [0, 3]<br/>class = 1>, fillcolor="#399de5"] ;
576 -> 577 ;
578 [label=<gini = 0.0<br/>samples = 3<br/>value = [3, 0]<br/>class = 0>, fillcolor="#e58139"] ;
576 -> 578 ;
579 [label=<gini = 0.0<br/>samples = 7<br/>value = [0, 7]<br/>class = 1>, fillcolor="#399de5"] ;
575 -> 579 ;
580 [label=<gini = 0.0<br/>samples = 6<br/>value = [6, 0]<br/>class = 0>, fillcolor="#e58139"] ;
574 -> 580 ;
581 [label=<gini = 0.0<br/>samples = 6<br/>value = [0, 6]<br/>class = 1>, fillcolor="#399de5"] ;
573 -> 581 ;
582 [label=<gini = 0.0<br/>samples = 5<br/>value = [5, 0]<br/>class = 0>, fillcolor="#e58139"] ;
572 -> 582 ;
583 [label=<occupation_Craft-repair &le; 0.5<br/>gini = 0.111<br/>samples = 17<br/>value = [16, 1]<br/>class = 0>, fillcolor="#e78945"] ;
569 -> 583 ;
584 [label=<gini = 0.0<br/>samples = 14<br/>value = [14, 0]<br/>class = 0>, fillcolor="#e58139"] ;
583 -> 584 ;
585 [label=<age &le; 32.0<br/>gini = 0.444<br/>samples = 3<br/>value = [2, 1]<br/>class = 0>, fillcolor="#f2c09c"] ;
583 -> 585 ;
586 [label=<gini = 0.0<br/>samples = 2<br/>value = [2, 0]<br/>class = 0>, fillcolor="#e58139"] ;
585 -> 586 ;
587 [label=<gini = 0.0<br/>samples = 1<br/>value = [0, 1]<br/>class = 1>, fillcolor="#399de5"] ;
585 -> 587 ;
588 [label=<gini = 0.0<br/>samples = 3<br/>value = [0, 3]<br/>class = 1>, fillcolor="#399de5"] ;
566 -> 588 ;
589 [label=<hours-per-week &le; 59.0<br/>gini = 0.497<br/>samples = 24<br/>value = [11, 13]<br/>class = 1>, fillcolor="#e1f0fb"] ;
563 -> 589 ;
590 [label=<education-num &le; 8.5<br/>gini = 0.397<br/>samples = 11<br/>value = [8, 3]<br/>class = 0>, fillcolor="#efb083"] ;
589 -> 590 ;
591 [label=<gini = 0.0<br/>samples = 2<br/>value = [0, 2]<br/>class = 1>, fillcolor="#399de5"] ;
590 -> 591 ;
592 [label=<marital-status_Divorced &le; 0.5<br/>gini = 0.198<br/>samples = 9<br/>value = [8, 1]<br/>class = 0>, fillcolor="#e89152"] ;
590 -> 592 ;
593 [label=<gini = 0.0<br/>samples = 8<br/>value = [8, 0]<br/>class = 0>, fillcolor="#e58139"] ;
592 -> 593 ;
594 [label=<gini = 0.0<br/>samples = 1<br/>value = [0, 1]<br/>class = 1>, fillcolor="#399de5"] ;
592 -> 594 ;
595 [label=<age &le; 28.5<br/>gini = 0.355<br/>samples = 13<br/>value = [3, 10]<br/>class = 1>, fillcolor="#74baed"] ;
589 -> 595 ;
596 [label=<gini = 0.0<br/>samples = 7<br/>value = [0, 7]<br/>class = 1>, fillcolor="#399de5"] ;
595 -> 596 ;
597 [label=<hours-per-week &le; 62.5<br/>gini = 0.5<br/>samples = 6<br/>value = [3, 3]<br/>class = 0>, fillcolor="#ffffff"] ;
595 -> 597 ;
598 [label=<gini = 0.0<br/>samples = 2<br/>value = [2, 0]<br/>class = 0>, fillcolor="#e58139"] ;
597 -> 598 ;
599 [label=<native-country_United-States &le; 0.5<br/>gini = 0.375<br/>samples = 4<br/>value = [1, 3]<br/>class = 1>, fillcolor="#7bbeee"] ;
597 -> 599 ;
600 [label=<gini = 0.0<br/>samples = 1<br/>value = [1, 0]<br/>class = 0>, fillcolor="#e58139"] ;
599 -> 600 ;
601 [label=<gini = 0.0<br/>samples = 3<br/>value = [0, 3]<br/>class = 1>, fillcolor="#399de5"] ;
599 -> 601 ;
602 [label=<workclass_Self-emp-not-inc &le; 0.5<br/>gini = 0.278<br/>samples = 12<br/>value = [2, 10]<br/>class = 1>, fillcolor="#61b1ea"] ;
562 -> 602 ;
603 [label=<gini = 0.0<br/>samples = 2<br/>value = [2, 0]<br/>class = 0>, fillcolor="#e58139"] ;
602 -> 603 ;
604 [label=<gini = 0.0<br/>samples = 10<br/>value = [0, 10]<br/>class = 1>, fillcolor="#399de5"] ;
602 -> 604 ;
605 [label=<hours-per-week &le; 98.5<br/>gini = 0.122<br/>samples = 859<br/>value = [803, 56]<br/>class = 0>, fillcolor="#e78a47"] ;
561 -> 605 ;
606 [label=<education-num &le; 5.5<br/>gini = 0.115<br/>samples = 851<br/>value = [799, 52]<br/>class = 0>, fillcolor="#e78946"] ;
605 -> 606 ;
607 [label=<native-country_United-States &le; 0.5<br/>gini = 0.339<br/>samples = 60<br/>value = [47, 13]<br/>class = 0>, fillcolor="#eca470"] ;
606 -> 607 ;
608 [label=<gini = 0.0<br/>samples = 26<br/>value = [26, 0]<br/>class = 0>, fillcolor="#e58139"] ;
607 -> 608 ;
609 [label=<relationship_Not-in-family &le; 0.5<br/>gini = 0.472<br/>samples = 34<br/>value = [21, 13]<br/>class = 0>, fillcolor="#f5cfb4"] ;
607 -> 609 ;
610 [label=<gini = 0.0<br/>samples = 14<br/>value = [14, 0]<br/>class = 0>, fillcolor="#e58139"] ;
609 -> 610 ;
611 [label=<marital-status_Never-married &le; 0.5<br/>gini = 0.455<br/>samples = 20<br/>value = [7, 13]<br/>class = 1>, fillcolor="#a4d2f3"] ;
609 -> 611 ;
612 [label=<gini = 0.0<br/>samples = 3<br/>value = [3, 0]<br/>class = 0>, fillcolor="#e58139"] ;
611 -> 612 ;
613 [label=<race_White &le; 0.5<br/>gini = 0.36<br/>samples = 17<br/>value = [4, 13]<br/>class = 1>, fillcolor="#76bbed"] ;
611 -> 613 ;
614 [label=<gini = 0.0<br/>samples = 1<br/>value = [1, 0]<br/>class = 0>, fillcolor="#e58139"] ;
613 -> 614 ;
615 [label=<occupation_Machine-op-inspct &le; 0.5<br/>gini = 0.305<br/>samples = 16<br/>value = [3, 13]<br/>class = 1>, fillcolor="#67b4eb"] ;
613 -> 615 ;
616 [label=<age &le; 18.0<br/>gini = 0.231<br/>samples = 15<br/>value = [2, 13]<br/>class = 1>, fillcolor="#57ace9"] ;
615 -> 616 ;
617 [label=<gini = 0.0<br/>samples = 1<br/>value = [1, 0]<br/>class = 0>, fillcolor="#e58139"] ;
616 -> 617 ;
618 [label=<education-num &le; 4.5<br/>gini = 0.133<br/>samples = 14<br/>value = [1, 13]<br/>class = 1>, fillcolor="#48a5e7"] ;
616 -> 618 ;
619 [label=<age &le; 24.5<br/>gini = 0.32<br/>samples = 5<br/>value = [1, 4]<br/>class = 1>, fillcolor="#6ab6ec"] ;
618 -> 619 ;
620 [label=<gini = 0.0<br/>samples = 4<br/>value = [0, 4]<br/>class = 1>, fillcolor="#399de5"] ;
619 -> 620 ;
621 [label=<gini = 0.0<br/>samples = 1<br/>value = [1, 0]<br/>class = 0>, fillcolor="#e58139"] ;
619 -> 621 ;
622 [label=<gini = 0.0<br/>samples = 9<br/>value = [0, 9]<br/>class = 1>, fillcolor="#399de5"] ;
618 -> 622 ;
623 [label=<gini = 0.0<br/>samples = 1<br/>value = [1, 0]<br/>class = 0>, fillcolor="#e58139"] ;
615 -> 623 ;
624 [label=<education-num &le; 10.5<br/>gini = 0.094<br/>samples = 791<br/>value = [752, 39]<br/>class = 0>, fillcolor="#e68843"] ;
606 -> 624 ;
625 [label=<race_Asian-Pac-Islander &le; 0.5<br/>gini = 0.066<br/>samples = 701<br/>value = [677, 24]<br/>class = 0>, fillcolor="#e68540"] ;
624 -> 625 ;
626 [label=<occupation_Other-service &le; 0.5<br/>gini = 0.054<br/>samples = 685<br/>value = [666, 19]<br/>class = 0>, fillcolor="#e6853f"] ;
625 -> 626 ;
627 [label=<age &le; 29.5<br/>gini = 0.035<br/>samples = 623<br/>value = [612, 11]<br/>class = 0>, fillcolor="#e5833d"] ;
626 -> 627 ;
628 [label=<marital-status_Divorced &le; 0.5<br/>gini = 0.009<br/>samples = 457<br/>value = [455, 2]<br/>class = 0>, fillcolor="#e5823a"] ;
627 -> 628 ;
629 [label=<occupation_Sales &le; 0.5<br/>gini = 0.005<br/>samples = 412<br/>value = [411, 1]<br/>class = 0>, fillcolor="#e58139"] ;
628 -> 629 ;
630 [label=<gini = 0.0<br/>samples = 341<br/>value = [341, 0]<br/>class = 0>, fillcolor="#e58139"] ;
629 -> 630 ;
631 [label=<age &le; 26.5<br/>gini = 0.028<br/>samples = 71<br/>value = [70, 1]<br/>class = 0>, fillcolor="#e5833c"] ;
629 -> 631 ;
632 [label=<gini = 0.0<br/>samples = 58<br/>value = [58, 0]<br/>class = 0>, fillcolor="#e58139"] ;
631 -> 632 ;
633 [label=<education-num &le; 9.5<br/>gini = 0.142<br/>samples = 13<br/>value = [12, 1]<br/>class = 0>, fillcolor="#e78c49"] ;
631 -> 633 ;
634 [label=<sex_Male &le; 0.5<br/>gini = 0.375<br/>samples = 4<br/>value = [3, 1]<br/>class = 0>, fillcolor="#eeab7b"] ;
633 -> 634 ;
635 [label=<gini = 0.0<br/>samples = 1<br/>value = [1, 0]<br/>class = 0>, fillcolor="#e58139"] ;
634 -> 635 ;
636 [label=<relationship_Not-in-family &le; 0.5<br/>gini = 0.444<br/>samples = 3<br/>value = [2, 1]<br/>class = 0>, fillcolor="#f2c09c"] ;
634 -> 636 ;
637 [label=<gini = 0.0<br/>samples = 1<br/>value = [1, 0]<br/>class = 0>, fillcolor="#e58139"] ;
636 -> 637 ;
638 [label=<gini = 0.5<br/>samples = 2<br/>value = [1, 1]<br/>class = 0>, fillcolor="#ffffff"] ;
636 -> 638 ;
639 [label=<gini = 0.0<br/>samples = 9<br/>value = [9, 0]<br/>class = 0>, fillcolor="#e58139"] ;
633 -> 639 ;
640 [label=<occupation_Exec-managerial &le; 0.5<br/>gini = 0.043<br/>samples = 45<br/>value = [44, 1]<br/>class = 0>, fillcolor="#e6843d"] ;
628 -> 640 ;
641 [label=<gini = 0.0<br/>samples = 42<br/>value = [42, 0]<br/>class = 0>, fillcolor="#e58139"] ;
640 -> 641 ;
642 [label=<hours-per-week &le; 47.5<br/>gini = 0.444<br/>samples = 3<br/>value = [2, 1]<br/>class = 0>, fillcolor="#f2c09c"] ;
640 -> 642 ;
643 [label=<gini = 0.0<br/>samples = 1<br/>value = [0, 1]<br/>class = 1>, fillcolor="#399de5"] ;
642 -> 643 ;
644 [label=<gini = 0.0<br/>samples = 2<br/>value = [2, 0]<br/>class = 0>, fillcolor="#e58139"] ;
642 -> 644 ;
645 [label=<occupation_Sales &le; 0.5<br/>gini = 0.103<br/>samples = 166<br/>value = [157, 9]<br/>class = 0>, fillcolor="#e68844"] ;
627 -> 645 ;
646 [label=<occupation_Prof-specialty &le; 0.5<br/>gini = 0.044<br/>samples = 134<br/>value = [131, 3]<br/>class = 0>, fillcolor="#e6843e"] ;
645 -> 646 ;
647 [label=<occupation_Exec-managerial &le; 0.5<br/>gini = 0.031<br/>samples = 129<br/>value = [127, 2]<br/>class = 0>, fillcolor="#e5833c"] ;
646 -> 647 ;
648 [label=<occupation_Craft-repair &le; 0.5<br/>gini = 0.017<br/>samples = 114<br/>value = [113, 1]<br/>class = 0>, fillcolor="#e5823b"] ;
647 -> 648 ;
649 [label=<gini = 0.0<br/>samples = 77<br/>value = [77, 0]<br/>class = 0>, fillcolor="#e58139"] ;
648 -> 649 ;
650 [label=<relationship_Not-in-family &le; 0.5<br/>gini = 0.053<br/>samples = 37<br/>value = [36, 1]<br/>class = 0>, fillcolor="#e6843e"] ;
648 -> 650 ;
651 [label=<gini = 0.0<br/>samples = 17<br/>value = [17, 0]<br/>class = 0>, fillcolor="#e58139"] ;
650 -> 651 ;
652 [label=<education-num &le; 9.5<br/>gini = 0.095<br/>samples = 20<br/>value = [19, 1]<br/>class = 0>, fillcolor="#e68843"] ;
650 -> 652 ;
653 [label=<hours-per-week &le; 48.0<br/>gini = 0.153<br/>samples = 12<br/>value = [11, 1]<br/>class = 0>, fillcolor="#e78c4b"] ;
652 -> 653 ;
654 [label=<gini = 0.0<br/>samples = 5<br/>value = [5, 0]<br/>class = 0>, fillcolor="#e58139"] ;
653 -> 654 ;
655 [label=<gini = 0.245<br/>samples = 7<br/>value = [6, 1]<br/>class = 0>, fillcolor="#e9965a"] ;
653 -> 655 ;
656 [label=<gini = 0.0<br/>samples = 8<br/>value = [8, 0]<br/>class = 0>, fillcolor="#e58139"] ;
652 -> 656 ;
657 [label=<sex_Male &le; 0.5<br/>gini = 0.124<br/>samples = 15<br/>value = [14, 1]<br/>class = 0>, fillcolor="#e78a47"] ;
647 -> 657 ;
658 [label=<hours-per-week &le; 49.5<br/>gini = 0.278<br/>samples = 6<br/>value = [5, 1]<br/>class = 0>, fillcolor="#ea9a61"] ;
657 -> 658 ;
659 [label=<gini = 0.0<br/>samples = 5<br/>value = [5, 0]<br/>class = 0>, fillcolor="#e58139"] ;
658 -> 659 ;
660 [label=<gini = 0.0<br/>samples = 1<br/>value = [0, 1]<br/>class = 1>, fillcolor="#399de5"] ;
658 -> 660 ;
661 [label=<gini = 0.0<br/>samples = 9<br/>value = [9, 0]<br/>class = 0>, fillcolor="#e58139"] ;
657 -> 661 ;
662 [label=<hours-per-week &le; 56.0<br/>gini = 0.32<br/>samples = 5<br/>value = [4, 1]<br/>class = 0>, fillcolor="#eca06a"] ;
646 -> 662 ;
663 [label=<gini = 0.0<br/>samples = 4<br/>value = [4, 0]<br/>class = 0>, fillcolor="#e58139"] ;
662 -> 663 ;
664 [label=<gini = 0.0<br/>samples = 1<br/>value = [0, 1]<br/>class = 1>, fillcolor="#399de5"] ;
662 -> 664 ;
665 [label=<age &le; 30.5<br/>gini = 0.305<br/>samples = 32<br/>value = [26, 6]<br/>class = 0>, fillcolor="#eb9e67"] ;
645 -> 665 ;
666 [label=<sex_Female &le; 0.5<br/>gini = 0.494<br/>samples = 9<br/>value = [4, 5]<br/>class = 1>, fillcolor="#d7ebfa"] ;
665 -> 666 ;
667 [label=<gini = 0.278<br/>samples = 6<br/>value = [1, 5]<br/>class = 1>, fillcolor="#61b1ea"] ;
666 -> 667 ;
668 [label=<gini = 0.0<br/>samples = 3<br/>value = [3, 0]<br/>class = 0>, fillcolor="#e58139"] ;
666 -> 668 ;
669 [label=<education-num &le; 7.5<br/>gini = 0.083<br/>samples = 23<br/>value = [22, 1]<br/>class = 0>, fillcolor="#e68742"] ;
665 -> 669 ;
670 [label=<gini = 0.0<br/>samples = 1<br/>value = [0, 1]<br/>class = 1>, fillcolor="#399de5"] ;
669 -> 670 ;
671 [label=<gini = 0.0<br/>samples = 22<br/>value = [22, 0]<br/>class = 0>, fillcolor="#e58139"] ;
669 -> 671 ;
672 [label=<native-country_infrequent_sklearn &le; 0.5<br/>gini = 0.225<br/>samples = 62<br/>value = [54, 8]<br/>class = 0>, fillcolor="#e99456"] ;
626 -> 672 ;
673 [label=<age &le; 26.5<br/>gini = 0.135<br/>samples = 55<br/>value = [51, 4]<br/>class = 0>, fillcolor="#e78b49"] ;
672 -> 673 ;
674 [label=<gini = 0.0<br/>samples = 28<br/>value = [28, 0]<br/>class = 0>, fillcolor="#e58139"] ;
673 -> 674 ;
675 [label=<age &le; 27.5<br/>gini = 0.252<br/>samples = 27<br/>value = [23, 4]<br/>class = 0>, fillcolor="#ea975b"] ;
673 -> 675 ;
676 [label=<hours-per-week &le; 51.0<br/>gini = 0.5<br/>samples = 8<br/>value = [4, 4]<br/>class = 0>, fillcolor="#ffffff"] ;
675 -> 676 ;
677 [label=<sex_Female &le; 0.5<br/>gini = 0.32<br/>samples = 5<br/>value = [1, 4]<br/>class = 1>, fillcolor="#6ab6ec"] ;
676 -> 677 ;
678 [label=<gini = 0.0<br/>samples = 1<br/>value = [1, 0]<br/>class = 0>, fillcolor="#e58139"] ;
677 -> 678 ;
679 [label=<gini = 0.0<br/>samples = 4<br/>value = [0, 4]<br/>class = 1>, fillcolor="#399de5"] ;
677 -> 679 ;
680 [label=<gini = 0.0<br/>samples = 3<br/>value = [3, 0]<br/>class = 0>, fillcolor="#e58139"] ;
676 -> 680 ;
681 [label=<gini = 0.0<br/>samples = 19<br/>value = [19, 0]<br/>class = 0>, fillcolor="#e58139"] ;
675 -> 681 ;
682 [label=<marital-status_Separated &le; 0.5<br/>gini = 0.49<br/>samples = 7<br/>value = [3, 4]<br/>class = 1>, fillcolor="#cee6f8"] ;
672 -> 682 ;
683 [label=<gini = 0.0<br/>samples = 3<br/>value = [3, 0]<br/>class = 0>, fillcolor="#e58139"] ;
682 -> 683 ;
684 [label=<gini = 0.0<br/>samples = 4<br/>value = [0, 4]<br/>class = 1>, fillcolor="#399de5"] ;
682 -> 684 ;
685 [label=<hours-per-week &le; 70.0<br/>gini = 0.43<br/>samples = 16<br/>value = [11, 5]<br/>class = 0>, fillcolor="#f1ba93"] ;
625 -> 685 ;
686 [label=<occupation_Machine-op-inspct &le; 0.5<br/>gini = 0.26<br/>samples = 13<br/>value = [11, 2]<br/>class = 0>, fillcolor="#ea985d"] ;
685 -> 686 ;
687 [label=<gini = 0.0<br/>samples = 11<br/>value = [11, 0]<br/>class = 0>, fillcolor="#e58139"] ;
686 -> 687 ;
688 [label=<gini = 0.0<br/>samples = 2<br/>value = [0, 2]<br/>class = 1>, fillcolor="#399de5"] ;
686 -> 688 ;
689 [label=<gini = 0.0<br/>samples = 3<br/>value = [0, 3]<br/>class = 1>, fillcolor="#399de5"] ;
685 -> 689 ;
690 [label=<occupation_Exec-managerial &le; 0.5<br/>gini = 0.278<br/>samples = 90<br/>value = [75, 15]<br/>class = 0>, fillcolor="#ea9a61"] ;
624 -> 690 ;
691 [label=<occupation_Prof-specialty &le; 0.5<br/>gini = 0.204<br/>samples = 78<br/>value = [69, 9]<br/>class = 0>, fillcolor="#e89153"] ;
690 -> 691 ;
692 [label=<occupation_Farming-fishing &le; 0.5<br/>gini = 0.109<br/>samples = 69<br/>value = [65, 4]<br/>class = 0>, fillcolor="#e78945"] ;
691 -> 692 ;
693 [label=<marital-status_Divorced &le; 0.5<br/>gini = 0.084<br/>samples = 68<br/>value = [65, 3]<br/>class = 0>, fillcolor="#e68742"] ;
692 -> 693 ;
694 [label=<gini = 0.0<br/>samples = 51<br/>value = [51, 0]<br/>class = 0>, fillcolor="#e58139"] ;
693 -> 694 ;
695 [label=<occupation_Craft-repair &le; 0.5<br/>gini = 0.291<br/>samples = 17<br/>value = [14, 3]<br/>class = 0>, fillcolor="#eb9c63"] ;
693 -> 695 ;
696 [label=<age &le; 31.5<br/>gini = 0.133<br/>samples = 14<br/>value = [13, 1]<br/>class = 0>, fillcolor="#e78b48"] ;
695 -> 696 ;
697 [label=<gini = 0.0<br/>samples = 9<br/>value = [9, 0]<br/>class = 0>, fillcolor="#e58139"] ;
696 -> 697 ;
698 [label=<education-num &le; 11.5<br/>gini = 0.32<br/>samples = 5<br/>value = [4, 1]<br/>class = 0>, fillcolor="#eca06a"] ;
696 -> 698 ;
699 [label=<gini = 0.0<br/>samples = 1<br/>value = [0, 1]<br/>class = 1>, fillcolor="#399de5"] ;
698 -> 699 ;
700 [label=<gini = 0.0<br/>samples = 4<br/>value = [4, 0]<br/>class = 0>, fillcolor="#e58139"] ;
698 -> 700 ;
701 [label=<relationship_Own-child &le; 0.5<br/>gini = 0.444<br/>samples = 3<br/>value = [1, 2]<br/>class = 1>, fillcolor="#9ccef2"] ;
695 -> 701 ;
702 [label=<gini = 0.0<br/>samples = 2<br/>value = [0, 2]<br/>class = 1>, fillcolor="#399de5"] ;
701 -> 702 ;
703 [label=<gini = 0.0<br/>samples = 1<br/>value = [1, 0]<br/>class = 0>, fillcolor="#e58139"] ;
701 -> 703 ;
704 [label=<gini = 0.0<br/>samples = 1<br/>value = [0, 1]<br/>class = 1>, fillcolor="#399de5"] ;
692 -> 704 ;
705 [label=<age &le; 25.5<br/>gini = 0.494<br/>samples = 9<br/>value = [4, 5]<br/>class = 1>, fillcolor="#d7ebfa"] ;
691 -> 705 ;
706 [label=<hours-per-week &le; 52.5<br/>gini = 0.278<br/>samples = 6<br/>value = [1, 5]<br/>class = 1>, fillcolor="#61b1ea"] ;
705 -> 706 ;
707 [label=<gini = 0.0<br/>samples = 5<br/>value = [0, 5]<br/>class = 1>, fillcolor="#399de5"] ;
706 -> 707 ;
708 [label=<gini = 0.0<br/>samples = 1<br/>value = [1, 0]<br/>class = 0>, fillcolor="#e58139"] ;
706 -> 708 ;
709 [label=<gini = 0.0<br/>samples = 3<br/>value = [3, 0]<br/>class = 0>, fillcolor="#e58139"] ;
705 -> 709 ;
710 [label=<sex_Female &le; 0.5<br/>gini = 0.5<br/>samples = 12<br/>value = [6, 6]<br/>class = 0>, fillcolor="#ffffff"] ;
690 -> 710 ;
711 [label=<age &le; 25.0<br/>gini = 0.245<br/>samples = 7<br/>value = [1, 6]<br/>class = 1>, fillcolor="#5aade9"] ;
710 -> 711 ;
712 [label=<gini = 0.0<br/>samples = 1<br/>value = [1, 0]<br/>class = 0>, fillcolor="#e58139"] ;
711 -> 712 ;
713 [label=<gini = 0.0<br/>samples = 6<br/>value = [0, 6]<br/>class = 1>, fillcolor="#399de5"] ;
711 -> 713 ;
714 [label=<gini = 0.0<br/>samples = 5<br/>value = [5, 0]<br/>class = 0>, fillcolor="#e58139"] ;
710 -> 714 ;
715 [label=<age &le; 30.5<br/>gini = 0.5<br/>samples = 8<br/>value = [4, 4]<br/>class = 0>, fillcolor="#ffffff"] ;
605 -> 715 ;
716 [label=<gini = 0.0<br/>samples = 4<br/>value = [4, 0]<br/>class = 0>, fillcolor="#e58139"] ;
715 -> 716 ;
717 [label=<gini = 0.0<br/>samples = 4<br/>value = [0, 4]<br/>class = 1>, fillcolor="#399de5"] ;
715 -> 717 ;
718 [label=<education-num &le; 9.5<br/>gini = 0.382<br/>samples = 1182<br/>value = [878, 304]<br/>class = 0>, fillcolor="#eead7e"] ;
560 -> 718 ;
719 [label=<workclass_Self-emp-not-inc &le; 0.5<br/>gini = 0.316<br/>samples = 636<br/>value = [511, 125]<br/>class = 0>, fillcolor="#eba069"] ;
718 -> 719 ;
720 [label=<occupation_Transport-moving &le; 0.5<br/>gini = 0.266<br/>samples = 526<br/>value = [443, 83]<br/>class = 0>, fillcolor="#ea995e"] ;
719 -> 720 ;
721 [label=<occupation_Tech-support &le; 0.5<br/>gini = 0.217<br/>samples = 436<br/>value = [382, 54]<br/>class = 0>, fillcolor="#e99355"] ;
720 -> 721 ;
722 [label=<relationship_Other-relative &le; 0.5<br/>gini = 0.194<br/>samples = 422<br/>value = [376, 46]<br/>class = 0>, fillcolor="#e89051"] ;
721 -> 722 ;
723 [label=<marital-status_Married-AF-spouse &le; 0.5<br/>gini = 0.171<br/>samples = 402<br/>value = [364, 38]<br/>class = 0>, fillcolor="#e88e4e"] ;
722 -> 723 ;
724 [label=<workclass_Federal-gov &le; 0.5<br/>gini = 0.164<br/>samples = 400<br/>value = [364, 36]<br/>class = 0>, fillcolor="#e88d4d"] ;
723 -> 724 ;
725 [label=<hours-per-week &le; 47.5<br/>gini = 0.15<br/>samples = 392<br/>value = [360, 32]<br/>class = 0>, fillcolor="#e78c4b"] ;
724 -> 725 ;
726 [label=<age &le; 74.0<br/>gini = 0.015<br/>samples = 129<br/>value = [128, 1]<br/>class = 0>, fillcolor="#e5823b"] ;
725 -> 726 ;
727 [label=<gini = 0.0<br/>samples = 128<br/>value = [128, 0]<br/>class = 0>, fillcolor="#e58139"] ;
726 -> 727 ;
728 [label=<gini = 0.0<br/>samples = 1<br/>value = [0, 1]<br/>class = 1>, fillcolor="#399de5"] ;
726 -> 728 ;
729 [label=<capital-loss &le; 1534.0<br/>gini = 0.208<br/>samples = 263<br/>value = [232, 31]<br/>class = 0>, fillcolor="#e89253"] ;
725 -> 729 ;
730 [label=<occupation_Sales &le; 0.5<br/>gini = 0.194<br/>samples = 257<br/>value = [229, 28]<br/>class = 0>, fillcolor="#e89051"] ;
729 -> 730 ;
731 [label=<marital-status_Never-married &le; 0.5<br/>gini = 0.151<br/>samples = 219<br/>value = [201, 18]<br/>class = 0>, fillcolor="#e78c4b"] ;
730 -> 731 ;
732 [label=<age &le; 34.5<br/>gini = 0.206<br/>samples = 154<br/>value = [136, 18]<br/>class = 0>, fillcolor="#e89253"] ;
731 -> 732 ;
733 [label=<hours-per-week &le; 49.0<br/>gini = 0.5<br/>samples = 8<br/>value = [4, 4]<br/>class = 0>, fillcolor="#ffffff"] ;
732 -> 733 ;
734 [label=<gini = 0.0<br/>samples = 4<br/>value = [0, 4]<br/>class = 1>, fillcolor="#399de5"] ;
733 -> 734 ;
735 [label=<gini = 0.0<br/>samples = 4<br/>value = [4, 0]<br/>class = 0>, fillcolor="#e58139"] ;
733 -> 735 ;
736 [label=<relationship_Own-child &le; 0.5<br/>gini = 0.173<br/>samples = 146<br/>value = [132, 14]<br/>class = 0>, fillcolor="#e88e4e"] ;
732 -> 736 ;
737 [label=<age &le; 41.5<br/>gini = 0.155<br/>samples = 142<br/>value = [130, 12]<br/>class = 0>, fillcolor="#e78d4b"] ;
736 -> 737 ;
738 [label=<gini = 0.035<br/>samples = 56<br/>value = [55, 1]<br/>class = 0>, fillcolor="#e5833d"] ;
737 -> 738 ;
739 [label=<gini = 0.223<br/>samples = 86<br/>value = [75, 11]<br/>class = 0>, fillcolor="#e99356"] ;
737 -> 739 ;
740 [label=<age &le; 51.0<br/>gini = 0.5<br/>samples = 4<br/>value = [2, 2]<br/>class = 0>, fillcolor="#ffffff"] ;
736 -> 740 ;
741 [label=<gini = 0.0<br/>samples = 2<br/>value = [2, 0]<br/>class = 0>, fillcolor="#e58139"] ;
740 -> 741 ;
742 [label=<gini = 0.0<br/>samples = 2<br/>value = [0, 2]<br/>class = 1>, fillcolor="#399de5"] ;
740 -> 742 ;
743 [label=<gini = 0.0<br/>samples = 65<br/>value = [65, 0]<br/>class = 0>, fillcolor="#e58139"] ;
731 -> 743 ;
744 [label=<hours-per-week &le; 57.5<br/>gini = 0.388<br/>samples = 38<br/>value = [28, 10]<br/>class = 0>, fillcolor="#eeae80"] ;
730 -> 744 ;
745 [label=<relationship_Unmarried &le; 0.5<br/>gini = 0.105<br/>samples = 18<br/>value = [17, 1]<br/>class = 0>, fillcolor="#e78845"] ;
744 -> 745 ;
746 [label=<gini = 0.0<br/>samples = 14<br/>value = [14, 0]<br/>class = 0>, fillcolor="#e58139"] ;
745 -> 746 ;
747 [label=<sex_Male &le; 0.5<br/>gini = 0.375<br/>samples = 4<br/>value = [3, 1]<br/>class = 0>, fillcolor="#eeab7b"] ;
745 -> 747 ;
748 [label=<gini = 0.0<br/>samples = 1<br/>value = [0, 1]<br/>class = 1>, fillcolor="#399de5"] ;
747 -> 748 ;
749 [label=<gini = 0.0<br/>samples = 3<br/>value = [3, 0]<br/>class = 0>, fillcolor="#e58139"] ;
747 -> 749 ;
750 [label=<age &le; 36.5<br/>gini = 0.495<br/>samples = 20<br/>value = [11, 9]<br/>class = 0>, fillcolor="#fae8db"] ;
744 -> 750 ;
751 [label=<marital-status_Never-married &le; 0.5<br/>gini = 0.278<br/>samples = 6<br/>value = [1, 5]<br/>class = 1>, fillcolor="#61b1ea"] ;
750 -> 751 ;
752 [label=<gini = 0.0<br/>samples = 1<br/>value = [1, 0]<br/>class = 0>, fillcolor="#e58139"] ;
751 -> 752 ;
753 [label=<gini = 0.0<br/>samples = 5<br/>value = [0, 5]<br/>class = 1>, fillcolor="#399de5"] ;
751 -> 753 ;
754 [label=<age &le; 39.5<br/>gini = 0.408<br/>samples = 14<br/>value = [10, 4]<br/>class = 0>, fillcolor="#efb388"] ;
750 -> 754 ;
755 [label=<gini = 0.0<br/>samples = 6<br/>value = [6, 0]<br/>class = 0>, fillcolor="#e58139"] ;
754 -> 755 ;
756 [label=<age &le; 40.5<br/>gini = 0.5<br/>samples = 8<br/>value = [4, 4]<br/>class = 0>, fillcolor="#ffffff"] ;
754 -> 756 ;
757 [label=<gini = 0.0<br/>samples = 3<br/>value = [0, 3]<br/>class = 1>, fillcolor="#399de5"] ;
756 -> 757 ;
758 [label=<gini = 0.32<br/>samples = 5<br/>value = [4, 1]<br/>class = 0>, fillcolor="#eca06a"] ;
756 -> 758 ;
759 [label=<capital-loss &le; 1616.5<br/>gini = 0.5<br/>samples = 6<br/>value = [3, 3]<br/>class = 0>, fillcolor="#ffffff"] ;
729 -> 759 ;
760 [label=<gini = 0.0<br/>samples = 3<br/>value = [0, 3]<br/>class = 1>, fillcolor="#399de5"] ;
759 -> 760 ;
761 [label=<gini = 0.0<br/>samples = 3<br/>value = [3, 0]<br/>class = 0>, fillcolor="#e58139"] ;
759 -> 761 ;
762 [label=<age &le; 38.5<br/>gini = 0.5<br/>samples = 8<br/>value = [4, 4]<br/>class = 0>, fillcolor="#ffffff"] ;
724 -> 762 ;
763 [label=<marital-status_Divorced &le; 0.5<br/>gini = 0.32<br/>samples = 5<br/>value = [1, 4]<br/>class = 1>, fillcolor="#6ab6ec"] ;
762 -> 763 ;
764 [label=<gini = 0.0<br/>samples = 4<br/>value = [0, 4]<br/>class = 1>, fillcolor="#399de5"] ;
763 -> 764 ;
765 [label=<gini = 0.0<br/>samples = 1<br/>value = [1, 0]<br/>class = 0>, fillcolor="#e58139"] ;
763 -> 765 ;
766 [label=<gini = 0.0<br/>samples = 3<br/>value = [3, 0]<br/>class = 0>, fillcolor="#e58139"] ;
762 -> 766 ;
767 [label=<gini = 0.0<br/>samples = 2<br/>value = [0, 2]<br/>class = 1>, fillcolor="#399de5"] ;
723 -> 767 ;
768 [label=<occupation_Craft-repair &le; 0.5<br/>gini = 0.48<br/>samples = 20<br/>value = [12, 8]<br/>class = 0>, fillcolor="#f6d5bd"] ;
722 -> 768 ;
769 [label=<gini = 0.0<br/>samples = 9<br/>value = [9, 0]<br/>class = 0>, fillcolor="#e58139"] ;
768 -> 769 ;
770 [label=<marital-status_Never-married &le; 0.5<br/>gini = 0.397<br/>samples = 11<br/>value = [3, 8]<br/>class = 1>, fillcolor="#83c2ef"] ;
768 -> 770 ;
771 [label=<gini = 0.0<br/>samples = 8<br/>value = [0, 8]<br/>class = 1>, fillcolor="#399de5"] ;
770 -> 771 ;
772 [label=<gini = 0.0<br/>samples = 3<br/>value = [3, 0]<br/>class = 0>, fillcolor="#e58139"] ;
770 -> 772 ;
773 [label=<age &le; 41.5<br/>gini = 0.49<br/>samples = 14<br/>value = [6, 8]<br/>class = 1>, fillcolor="#cee6f8"] ;
721 -> 773 ;
774 [label=<gini = 0.0<br/>samples = 5<br/>value = [5, 0]<br/>class = 0>, fillcolor="#e58139"] ;
773 -> 774 ;
775 [label=<marital-status_Divorced &le; 0.5<br/>gini = 0.198<br/>samples = 9<br/>value = [1, 8]<br/>class = 1>, fillcolor="#52a9e8"] ;
773 -> 775 ;
776 [label=<gini = 0.0<br/>samples = 1<br/>value = [1, 0]<br/>class = 0>, fillcolor="#e58139"] ;
775 -> 776 ;
777 [label=<gini = 0.0<br/>samples = 8<br/>value = [0, 8]<br/>class = 1>, fillcolor="#399de5"] ;
775 -> 777 ;
778 [label=<age &le; 56.0<br/>gini = 0.437<br/>samples = 90<br/>value = [61, 29]<br/>class = 0>, fillcolor="#f1bd97"] ;
720 -> 778 ;
779 [label=<hours-per-week &le; 57.0<br/>gini = 0.309<br/>samples = 68<br/>value = [55, 13]<br/>class = 0>, fillcolor="#eb9f68"] ;
778 -> 779 ;
780 [label=<gini = 0.0<br/>samples = 39<br/>value = [39, 0]<br/>class = 0>, fillcolor="#e58139"] ;
779 -> 780 ;
781 [label=<sex_Female &le; 0.5<br/>gini = 0.495<br/>samples = 29<br/>value = [16, 13]<br/>class = 0>, fillcolor="#fae7da"] ;
779 -> 781 ;
782 [label=<education-num &le; 8.5<br/>gini = 0.461<br/>samples = 25<br/>value = [16, 9]<br/>class = 0>, fillcolor="#f4c8a8"] ;
781 -> 782 ;
783 [label=<education-num &le; 6.5<br/>gini = 0.397<br/>samples = 11<br/>value = [3, 8]<br/>class = 1>, fillcolor="#83c2ef"] ;
782 -> 783 ;
784 [label=<gini = 0.0<br/>samples = 1<br/>value = [1, 0]<br/>class = 0>, fillcolor="#e58139"] ;
783 -> 784 ;
785 [label=<age &le; 36.0<br/>gini = 0.32<br/>samples = 10<br/>value = [2, 8]<br/>class = 1>, fillcolor="#6ab6ec"] ;
783 -> 785 ;
786 [label=<gini = 0.0<br/>samples = 1<br/>value = [1, 0]<br/>class = 0>, fillcolor="#e58139"] ;
785 -> 786 ;
